tree
version=v4
num_class=1
num_tree_per_iteration=1
label_index=0
max_feature_idx=68
objective=regression
feature_names=item_id store_id wm_yr_wk wday month cashback_store_1 cashback_store_2 cashback_store_3 sell_price quarter_of_year week_of_year day_of_year day_of_month day_of_week is_wknd is_month_start is_month_end event_name_1_Chanukah_End event_name_1_Christmas event_name_1_Cinco_De_Mayo event_name_1_ColumbusDay event_name_1_Easter event_name_1_Eid_al-Fitr event_name_1_EidAlAdha event_name_1_Father's_day event_name_1_Halloween event_name_1_IndependenceDay event_name_1_LaborDay event_name_1_LentStart event_name_1_LentWeek2 event_name_1_MartinLutherKingDay event_name_1_MemorialDay event_name_1_Mother's_day event_name_1_NBAFinalsEnd event_name_1_NBAFinalsStart event_name_1_NewYear event_name_1_OrthodoxChristmas event_name_1_OrthodoxEaster event_name_1_Pesach_End event_name_1_PresidentsDay event_name_1_Purim_End event_name_1_Ramadan_starts event_name_1_StPatricksDay event_name_1_SuperBowl event_name_1_Thanksgiving event_name_1_Unknown event_name_1_ValentinesDay event_name_1_VeteransDay event_type_1_Cultural event_type_1_National event_type_1_Religious event_type_1_Sporting event_type_1_Unknown event_name_2_Cinco_De_Mayo event_name_2_Easter event_name_2_Father's_day event_name_2_OrthodoxEaster event_name_2_Unknown event_type_2_Cultural event_type_2_Religious event_type_2_Unknown cnt_lag_1 cnt_lag_2 cnt_lag_6 cnt_lag_7 cnt_lag_13 cnt_lag_14 cnt_roll_mean_30 cnt_roll_mean_91
feature_infos=[1:45] [1:3] [11101:11451] [1:7] [1:12] [0:1] [0:1] [0:1] [0.20000000000000001:6.71] [1:4] [1:52] [1:366] [1:31] [0:6] [0:1] [0:1] [0:1] [0:1] [0:1] [0:1] [0:1] [0:1] [0:1] [0:1] [0:1] [0:1] [0:1] [0:1] [0:1] [0:1] [0:1] [0:1] [0:1] [0:1] [0:1] [0:1] [0:1] [0:1] [0:1] [0:1] [0:1] [0:1] [0:1] [0:1] [0:1] [0:1] [0:1] [0:1] [0:1] [0:1] [0:1] [0:1] [0:1] [0:1] [0:1] [0:1] [0:1] [0:1] [0:1] [0:1] [0:1] [-6.3067011023764028:764.28688781307221] [-5.5899865691727149:762.01761560100022] [-5.7913130266724151:761.67367623161408] [-6.6410775953762551:763.17363343769239] [-5.8726635780012675:765.19059387266509] [-5.7476096108380323:761.88846457503098] [-6.0083108954016362:445.74178071953065] [-5.0727381364068105:315.25433509825717]
tree_sizes=1020 1042 1031 1041 1038 1037 1044 1037 1039 1040 1042 1026 1041 1021 1037 1038 1033 1035 1038 1030 1038 1038 1024 1034 1033 1042 1035 1034 1040 1032 1042 1022 1039 1034 1044 1030 1033 1035 1040 1023 1031 1026 1033 1039 1028 1036 1032 1022 1042 1029 1034 1018 1021 1023 1022 1042 1014 1027 1006 1012 1027 1020 1025 1030 1033 1019 1015 1016 1021 1020 1013 1034 1041 1032 1022 1031 1018 1019 1028 1032 1030 1022 1026 1017 1021 1023 1024 1027 1016 1014 1031 1034 1024 1034 1031 1022 1024 1019 1011 1010 1019 1017 1026 1021 1014 1013 1029 1011 1009 1029 1028 1014 1022 1017 1042 1022 1024 1017 1029 1014 1011 1019 1009 1005 1004 1008 1012 1009 1010 1024 1006 1003 1011 1015 1016 1021 1001 1019 1004 1017 1002 1007 1014 1025 1017 1007 992 1007 1030 1003 1013 1009 1022 1007 1002 1018 1007 1008 991 1003 1016 997 1009 1007 994 1019 1003 1005 1021 994 1009 1002 1003 1010 1004 1012 1014 995 1001 1012 1008 1001 999 1010 1011 1006 1012 1014 1009 1009 999 993 997 1012 1005 1025 1002 1007 1014 1007 995 1014 1003 1012 996 1024 1000 987 997 1019 1000 999 996 1024 995 992 1015 989 1009 1012 1010 1020 1010 1017 1004 991 1004 990 1016 1010 1012 1020 1008 1021 1007 997 993 1008 1013 1011 1024 999 1011 1011 1007 1012 1016 1030 1010 1010 990 1009 1018 1019 1009 1010 1010 1009 1002 1011 1034 1012 991 1014 1022 1000 1009 1011 1011 1013 1011 1018 1019 1022 1012 1012 1013 999 1010 1010 1013 1009 995 1017 996 1009 1019 1004 1028 1013 1016 997 995 1016 999 1007 996 1033 998 1000 1021 992 1001 1013 1017 1026 1029 1016 1010 1014 1027 1016 1025 1012 1015 1024 1008 1007 1014 1018 1023 1017 1031 1013 1035 1004 1007 1019 1012 1005 1007 1030 1025 1031 1011 1007 1025 1023 1024 1004 1033 1015 1022 1027 1028 1008 1021 1035 991 1025 1008 1015 1006 1023 1014 1001 1016 1022 1024 1032 1030 1025 1016 1007 1019 1020 1020 1023 990 1014 1020 1001 1023 1017 1006 1022 1031 1016 1007 1016 1020 1029 1025 1020 1003 1041 1006 1021 1004

Tree=0
num_leaves=10
num_cat=0
split_feature=61 61 61 64 64 67 67 61 61
split_gain=4.8088e+07 1.21903e+07 9.12183e+06 2.38254e+06 2.03944e+06 1.26261e+06 945678 887285 419638
threshold=55.125146358153323 137.54082728400547 17.488511873793801 169.58845381224936 90.658599778816381 36.831149691339661 7.3135135017225394 250.53821180716395 84.772767412341537
decision_type=10 10 8 10 8 10 10 10 10
left_child=2 4 6 -3 -2 -4 -1 -5 -6
right_child=1 3 5 7 8 -7 -8 -9 -10
leaf_value=23.545784168313617 24.201529670419443 24.987853291296517 23.791131262386788 25.577406529199152 24.377257852570004 23.97341827276129 23.65273398698282 26.429484386983734 24.683649503698796
leaf_weight=28579 5214 731 10968 372 681 5814 11633 182 1301
leaf_count=28579 5214 731 10968 372 681 5814 11633 182 1301
internal_value=23.763 24.4655 23.6585 25.3627 24.3053 23.8543 23.5767 25.8573 24.5784
internal_weight=0 8481 56994 1285 7196 16782 40212 554 1982
internal_count=65475 8481 56994 1285 7196 16782 40212 554 1982
is_linear=0
shrinkage=1


Tree=1
num_leaves=10
num_cat=0
split_feature=61 61 61 61 66 67 65 67 61
split_gain=4.71311e+07 1.19477e+07 8.94031e+06 2.28782e+06 1.86234e+06 1.23749e+06 975707 926859 471617
threshold=55.125146358153323 137.54082728400547 17.488511873793801 250.53821180716395 90.722772867205165 36.831149691339661 169.75927548688301 7.3135135017225394 74.215913296365571
decision_type=10 10 8 10 10 10 10 10 10
left_child=2 4 7 6 8 -4 -3 -1 -2
right_child=1 3 5 -5 -6 -7 -8 -9 -10
leaf_value=-0.21503725142622684 0.35715818496269952 1.1660948705807728 0.027856374504051446 2.4276165315798752 0.8072320147401848 0.20832050749885336 1.8320390731189693 -0.1091569300212506 0.54680965537020187
leaf_weight=28579 2960 709 10968 257 1882 5814 319 11633 2354
leaf_count=28579 2960 709 10968 257 1882 5814 319 11633 2354
internal_value=0 0.695516 -0.103496 1.58372 0.536908 0.0903768 1.37274 -0.184407 0.44117
internal_weight=0 8481 56994 1285 7196 16782 1028 40212 5314
internal_count=65475 8481 56994 1285 7196 16782 1028 40212 5314
is_linear=0
shrinkage=0.01


Tree=2
num_leaves=10
num_cat=0
split_feature=61 61 61 64 64 67 67 61 61
split_gain=4.61932e+07 1.17099e+07 8.76456e+06 2.30948e+06 1.9771e+06 1.14956e+06 983975 852086 408519
threshold=55.125146358153323 137.54082728400547 18.233288220606024 169.58845381224936 90.658599778816381 36.831149691339661 7.5050405263721887 250.53821180716395 198.11269566995105
decision_type=10 10 8 10 8 10 10 10 10
left_child=2 4 6 8 -2 -4 -1 -5 -3
right_child=1 3 5 7 -6 -7 -8 -9 -10
leaf_value=-0.21235972936185224 0.42934250077332031 1.0666900114808733 0.03128330550875958 1.7805443298175772 0.80038403194439045 0.2068747347267377 -0.10420441114169801 2.6155499108283071 1.6217787778514554
leaf_weight=28855 5214 557 10478 372 1982 5788 11873 182 174
leaf_count=28855 5214 557 10478 372 1982 5788 11873 182 174
internal_value=0 0.68856 -0.102461 1.56788 0.531539 0.0937648 -0.18083 2.05486 1.19882
internal_weight=0 8481 56994 1285 7196 16266 40728 554 731
internal_count=65475 8481 56994 1285 7196 16266 40728 554 731
is_linear=0
shrinkage=0.01


Tree=3
num_leaves=10
num_cat=0
split_feature=61 61 61 61 67 67 67 65 13
split_gain=4.52739e+07 1.14769e+07 8.59015e+06 2.20181e+06 1.80935e+06 1.12671e+06 964394 946235 459530
threshold=55.125146358153323 137.54082728400547 18.233288220606024 250.53821180716395 89.92663679958865 36.256418388119037 7.5050405263721887 169.75927548688301 3.5000000000000004
decision_type=10 10 8 10 10 10 10 10 2
left_child=2 4 6 7 8 -4 -1 -3 -2
right_child=1 3 5 -5 -6 -7 -8 -9 -10
leaf_value=-0.21023612617236648 0.34746430221373842 1.1417277469772882 0.029326294937966665 2.3800849370548232 0.8069044747919546 0.20190844090473384 -0.10316236836183902 1.7975369784675048 0.53110529683827767
leaf_weight=28855 2806 709 10281 257 1741 5985 11873 319 2649
leaf_count=28855 2806 709 10281 257 1741 5985 11873 319 2649
internal_value=0 0.681675 -0.101437 1.5522 0.526223 0.0928271 -0.179022 1.34523 0.436642
internal_weight=0 8481 56994 1285 7196 16266 40728 1028 5455
internal_count=65475 8481 56994 1285 7196 16266 40728 1028 5455
is_linear=0
shrinkage=0.01


Tree=4
num_leaves=10
num_cat=0
split_feature=61 61 61 64 64 67 67 61 61
split_gain=4.4373e+07 1.12485e+07 8.42068e+06 2.2387e+06 1.91594e+06 1.16564e+06 872262 818280 404729
threshold=55.125146358153323 137.54082728400547 17.488511873793801 169.58845381224936 90.658599778816381 36.256418388119037 7.3135135017225394 250.53821180716395 84.772767412341537
decision_type=10 10 8 10 8 10 10 10 10
left_child=2 4 6 -3 -2 -4 -1 -5 -6
right_child=1 3 5 7 8 -7 -8 -9 -10
leaf_value=-0.20866092692781035 0.42035805992316277 1.1733164642284408 0.025464670568545494 1.7473197256108768 0.58810239226807581 0.19927949415414806 -0.10594636202510518 2.5655935643793466 0.88900210539255564
leaf_weight=28579 5214 731 10770 372 681 6012 11633 182 1301
leaf_count=28579 5214 731 10770 372 681 6012 11633 182 1301
internal_value=0 0.674858 -0.100422 1.53668 0.520961 0.0877323 -0.178946 2.01614 0.785615
internal_weight=0 8481 56994 1285 7196 16782 40212 554 1982
internal_count=65475 8481 56994 1285 7196 16782 40212 554 1982
is_linear=0
shrinkage=0.01


Tree=5
num_leaves=10
num_cat=0
split_feature=67 67 62 64 64 62 64 67 66
split_gain=3.9726e+07 1.09595e+07 7.44216e+06 2.43934e+06 1.54102e+06 1.19559e+06 830166 827721 659525
threshold=50.898617328144645 134.61535951578091 16.740307967227739 90.658599778816381 250.66773996315996 97.944250636358944 30.405827395811759 7.5050405263721887 169.69543624338255
decision_type=10 10 8 10 10 10 8 10 10
left_child=2 3 7 -2 8 6 -4 -1 -3
right_child=1 4 5 -5 -6 -7 -8 -9 -10
leaf_value=-0.20567729787807573 0.37624761167181625 1.0851785728291554 0.002688128096473182 0.75968384339583939 2.3207318906562273 0.8635736025885532 0.14619940948544582 -0.10171015053366085 1.6562461574594876
leaf_weight=28755 6473 408 9177 2231 215 190 7188 10437 401
leaf_count=28755 6473 408 9177 2231 215 190 7188 10437 401
internal_value=0 0.589656 -0.102896 0.47453 1.56823 0.0748794 0.0657226 -0.17799 1.36824
internal_weight=0 9728 55747 8704 1024 16555 16365 39192 809
internal_count=65475 9728 55747 8704 1024 16555 16365 39192 809
is_linear=0
shrinkage=0.01


Tree=6
num_leaves=10
num_cat=0
split_feature=61 61 61 64 61 64 67 64 61
split_gain=4.27499e+07 1.06156e+07 8.38631e+06 2.17271e+06 1.64787e+06 1.08995e+06 966027 696220 499864
threshold=56.268603396846665 150.22159391795142 18.983003647663583 97.654048174401552 250.53821180716395 39.707081553233287 7.5050405263721887 169.58845381224936 74.215913296365571
decision_type=10 10 8 10 10 10 10 10 10
left_child=2 3 6 8 7 -4 -1 -3 -2
right_child=1 4 5 -5 -6 -7 -8 -9 -10
leaf_value=-0.2039002510592538 0.34865256559390695 1.1308777445022793 0.040557315851003209 0.84855396619115353 2.3182112586915724 0.21715646114936019 -0.098253263412726236 1.7373157269369344 0.53982571622226594
leaf_weight=28886 2830 437 10852 1719 257 5155 12358 334 2647
leaf_count=28886 2830 437 10852 1719 257 5155 12358 334 2647
internal_value=0 0.674186 -0.0968456 0.538392 1.62474 0.0974305 -0.172245 1.39359 0.441045
internal_weight=0 8224 57251 7196 1028 16007 41244 771 5477
internal_count=65475 8224 57251 7196 1028 16007 41244 771 5477
is_linear=0
shrinkage=0.01


Tree=7
num_leaves=10
num_cat=0
split_feature=61 61 61 64 64 67 61 67 61
split_gain=4.19093e+07 1.11031e+07 7.42213e+06 2.11276e+06 1.94374e+06 1.03662e+06 782069 751192 446573
threshold=53.08616109434071 137.54082728400547 16.735466647003609 169.58845381224936 87.493594921065196 34.066070759198375 250.53821180716395 6.9267653524877417 84.772767412341537
decision_type=10 10 8 10 8 10 10 10 10
left_child=2 4 7 -3 -2 -4 -5 -1 -6
right_child=1 3 5 6 8 -7 -8 -9 -10
leaf_value=-0.20354211313110068 0.39032959354369828 1.1415603011528541 0.013446114269300979 1.6975275444215345 0.55650020773315723 0.17513308241971504 2.497491357614706 -0.10800978412561982 0.85167993933286124
leaf_weight=28046 5514 731 10360 372 815 6424 182 11650 1381
leaf_count=28046 5514 731 10360 372 815 6424 182 11650 1381
internal_value=0 0.633963 -0.100965 1.49456 0.490531 0.0753311 1.96033 -0.175505 0.74213
internal_weight=0 8995 56480 1285 7710 16784 554 39696 2196
internal_count=65475 8995 56480 1285 7710 16784 554 39696 2196
is_linear=0
shrinkage=0.01


Tree=8
num_leaves=10
num_cat=0
split_feature=61 61 61 64 64 64 67 61 66
split_gain=4.10802e+07 1.0036e+07 8.34015e+06 2.54095e+06 1.11502e+06 1.10137e+06 969321 552592 474775
threshold=57.451827585075669 169.33980337841462 19.330882406810574 102.1206127060447 250.66773996315996 43.129236838755936 9.9741767516155821 87.555847332892668 137.82425646830234
decision_type=10 10 8 8 10 10 10 10 10
left_child=2 3 6 7 -3 -4 -1 -2 -5
right_child=1 4 5 8 -6 -7 -8 -9 -10
leaf_value=-0.19482618839835145 0.38913268216146896 1.5367658882868351 0.049978524631088643 0.78630095535285793 2.4131182613569435 0.23638642075726121 -0.080893281238526488 0.61258979737545494 1.152751109289502
leaf_weight=31737 3946 577 11652 1213 194 4354 9765 1538 499
leaf_count=31737 3946 577 11652 1213 194 4354 9765 1538 499
internal_value=0 0.672969 -0.0932313 0.556794 1.75727 0.100686 -0.168019 0.451802 0.893111
internal_weight=0 7967 57508 7196 771 16006 41502 5484 1712
internal_count=65475 7967 57508 7196 771 16006 41502 5484 1712
is_linear=0
shrinkage=0.01


Tree=9
num_leaves=10
num_cat=0
split_feature=61 61 61 64 64 67 61 67 61
split_gain=4.02726e+07 1.06834e+07 7.13103e+06 2.03867e+06 1.87455e+06 1.00356e+06 758695 724062 537186
threshold=53.08616109434071 137.54082728400547 16.735466647003609 169.58845381224936 79.840979440477653 34.066070759198375 250.53821180716395 6.73391531745248 90.593012700303333
decision_type=10 10 8 10 8 10 10 10 10
left_child=2 4 7 -3 -2 -4 -5 -1 -6
right_child=1 3 5 6 8 -7 -8 -9 -10
leaf_value=-0.19995877211692306 0.36258665391512912 1.1188781463219268 0.012940435996690845 1.6643188694471953 0.55232629006821155 0.17202794487771936 2.4522373381813805 -0.10671002520994387 0.82882733801607689
leaf_weight=27810 4897 731 10360 372 1448 6424 182 11886 1365
leaf_count=27810 4897 731 10360 372 1448 6424 182 11886 1365
internal_value=0 0.621461 -0.0989738 1.46563 0.480766 0.0738305 1.92317 -0.172038 0.686498
internal_weight=0 8995 56480 1285 7710 16784 554 39696 2813
internal_count=65475 8995 56480 1285 7710 16784 554 39696 2813
is_linear=0
shrinkage=0.01


Tree=10
num_leaves=10
num_cat=0
split_feature=61 61 61 64 64 64 67 61 66
split_gain=3.94783e+07 9.65954e+06 8.01348e+06 2.4466e+06 1.07748e+06 1.06578e+06 932956 531699 459644
threshold=57.451827585075669 169.33980337841462 19.330882406810574 102.1206127060447 250.66773996315996 43.129236838755936 9.9741767516155821 87.555847332892668 137.82425646830234
decision_type=10 10 8 8 10 10 10 10 10
left_child=2 3 6 7 -3 -4 -1 -2 -5
right_child=1 4 5 8 -6 -7 -8 -9 -10
leaf_value=-0.19100337227956754 0.38124475896834298 1.5067253969777603 0.048804729233063962 0.77066176935354735 2.3682012574205693 0.23217582088977706 -0.079228024146834816 0.60043682238535168 1.1312254088866209
leaf_weight=31737 3946 577 11652 1213 194 4354 9765 1538 499
leaf_count=31737 3946 577 11652 1213 194 4354 9765 1538 499
internal_value=0 0.659718 -0.0913954 0.545742 1.72349 0.0986859 -0.164704 0.442718 0.875756
internal_weight=0 7967 57508 7196 771 16006 41502 5484 1712
internal_count=65475 7967 57508 7196 771 16006 41502 5484 1712
is_linear=0
shrinkage=0.01


Tree=11
num_leaves=10
num_cat=0
split_feature=67 67 67 67 8 67 2 13 13
split_gain=3.54526e+07 9.83731e+06 6.41157e+06 1.85511e+06 1.38061e+06 764369 661292 531800 531534
threshold=50.898617328144645 134.61535951578091 15.826940742072031 83.259226086655588 1.379509803921569 31.68577468836828 11335.500000000002 3.5000000000000004 3.5000000000000004
decision_type=10 10 8 10 2 10 2 2 2
left_child=2 3 -1 8 6 -4 -3 -5 -2
right_child=1 4 5 7 -6 -7 -8 -9 -10
leaf_value=-0.17238845948498757 0.27315536616349251 2.0072060302552721 0.0041699019177342126 0.54942755213302508 1.1532043804573802 0.13640881010350281 0.64593062486021946 0.84071273977739103 0.46109994658293735
leaf_weight=37377 3510 420 11202 1464 565 7168 39 1096 2634
leaf_count=37377 3510 420 11202 1464 565 7168 39 1096 2634
internal_value=0 0.557039 -0.0972048 0.447966 1.48416 0.0557697 1.89154 0.674134 0.353729
internal_weight=0 9728 55747 8704 1024 18370 459 2560 6144
internal_count=65475 9728 55747 8704 1024 18370 459 2560 6144
is_linear=0
shrinkage=0.01


Tree=12
num_leaves=10
num_cat=0
split_feature=61 61 61 64 64 67 61 67 61
split_gain=3.80508e+07 9.71529e+06 7.20074e+06 1.92921e+06 1.63515e+06 1.06284e+06 728925 685590 388802
threshold=55.125146358153323 137.54082728400547 16.735466647003609 169.58845381224936 87.493594921065196 36.256418388119037 250.53821180716395 5.9621173675146126 90.593012700303333
decision_type=10 10 8 10 8 10 10 10 10
left_child=2 4 7 -3 -2 -4 -5 -1 -6
right_child=1 3 5 6 8 -7 -8 -9 -10
leaf_value=-0.19594655168109776 0.38286156677957656 1.0885587829979273 0.019939122983500136 1.617238401648819 0.56464197312238007 0.18443290704478252 2.3895439816569235 -0.10712760810203791 0.83347316196842769
leaf_weight=26845 5026 731 11268 372 986 6030 182 12851 1184
leaf_count=26845 5026 731 11268 372 986 6030 182 12851 1184
internal_value=0 0.624935 -0.0929936 1.42587 0.481911 0.0772809 1.87096 -0.167193 0.711322
internal_weight=0 8481 56994 1285 7196 17298 554 39696 2170
internal_count=65475 8481 56994 1285 7196 17298 554 39696 2170
is_linear=0
shrinkage=0.01


Tree=13
num_leaves=10
num_cat=0
split_feature=67 67 67 67 8 67 2 13 13
split_gain=3.41011e+07 9.47149e+06 6.16424e+06 1.78475e+06 1.33382e+06 730919 638698 516214 514327
threshold=50.898617328144645 134.61535951578091 15.826940742072031 83.259226086655588 1.379509803921569 31.268085876422294 11335.500000000002 3.5000000000000004 3.5000000000000004
decision_type=10 10 8 10 2 10 2 2 2
left_child=2 3 -1 7 6 -4 -3 -2 -5
right_child=1 4 5 8 -6 -7 -8 -9 -10
leaf_value=-0.16905330245836647 0.26745602981746197 1.9701275366374424 0.0027127240065988249 0.53848894044186901 1.130738970503343 0.1312539785164549 0.63230858902136489 0.45267219484169191 0.82494883644727679
leaf_weight=37377 3510 420 10946 1464 565 7424 39 2634 1096
leaf_count=37377 3510 420 10946 1464 565 7424 39 2634 1096
internal_value=0 0.546318 -0.095334 0.439292 1.45604 0.054661 1.85646 0.34686 0.66113
internal_weight=0 9728 55747 8704 1024 18370 459 6144 2560
internal_count=65475 9728 55747 8704 1024 18370 459 6144 2560
is_linear=0
shrinkage=0.01


Tree=14
num_leaves=10
num_cat=0
split_feature=61 61 61 64 63 64 67 61 61
split_gain=3.66789e+07 9.0239e+06 7.43171e+06 2.2656e+06 1.02614e+06 990383 859094 502066 428475
threshold=57.451827585075669 169.33980337841462 19.330882406810574 102.1206127060447 249.47376473900857 44.795659579385635 7.3135135017225394 87.555847332892668 98.183266842536781
decision_type=10 10 8 8 10 10 10 10 10
left_child=2 3 6 7 -3 -4 -1 -2 -5
right_child=1 4 5 8 -6 -7 -8 -9 -10
leaf_value=-0.18916690756606711 0.36686040357684219 1.4685838551911368 0.049718753109445041 0.63830493193160576 2.3448843355511513 0.23173655737526699 -0.090766259761563273 0.5798568567139144 0.96539288356886332
leaf_weight=28649 3946 599 12028 639 172 3978 12853 1538 1073
leaf_count=28649 3946 599 12028 639 172 3978 12853 1538 1073
internal_value=0 0.635898 -0.0880955 0.525736 1.66408 0.094956 -0.158693 0.426596 0.843308
internal_weight=0 7967 57508 7196 771 16006 41502 5484 1712
internal_count=65475 7967 57508 7196 771 16006 41502 5484 1712
is_linear=0
shrinkage=0.01


Tree=15
num_leaves=10
num_cat=0
split_feature=64 64 62 67 67 62 68 67 62
split_gain=3.28655e+07 8.68135e+06 6.68852e+06 1.9842e+06 1.49757e+06 1.3369e+06 811741 744445 585075
threshold=52.050221641314153 137.28253956449069 18.197547949343193 174.72002051802983 80.504515076736226 126.39327811725688 32.777253767479941 8.9193017506679944 55.143026795684442
decision_type=10 10 8 8 8 10 8 10 10
left_child=2 4 7 8 -2 6 -4 -1 -3
right_child=1 3 5 -5 -6 -7 -8 -9 -10
leaf_value=-0.18388942286114288 0.33769461321397493 0.30368350369930269 0.011875764220824994 1.8394974367546315 0.63452894902864643 1.0771845566514713 0.15666096118113981 -0.083785812849341959 1.1197706760014736
leaf_weight=30464 5509 100 9008 462 2458 134 6792 9825 723
leaf_count=30464 5509 100 9008 462 2458 134 6792 9825 723
internal_value=0 0.552296 -0.0908853 1.31503 0.429275 0.0825506 0.0741151 -0.159478 1.02061
internal_weight=0 9252 56223 1285 7967 15934 15800 40289 823
internal_count=65475 9252 56223 1285 7967 15934 15800 40289 823
is_linear=0
shrinkage=0.01


Tree=16
num_leaves=10
num_cat=0
split_feature=67 67 67 67 8 63 2 14 67
split_gain=3.21928e+07 8.9621e+06 5.81078e+06 1.68133e+06 1.26897e+06 622512 611446 552916 542451
threshold=50.898617328144645 134.61535951578091 17.170470810723021 89.92663679958865 1.379509803921569 33.605120014398842 11335.500000000002 1.0000000180025095e-35 5.8006135038846312
decision_type=10 10 8 10 2 10 2 2 10
left_child=2 3 8 7 6 -4 -3 -2 -1
right_child=1 4 5 -5 -6 -7 -8 -9 -10
leaf_value=-0.18624119217628762 0.27061845708624954 1.9175127631596158 0.014245407614207773 0.67726223061064961 1.0984383342076194 0.13897043634364278 0.60854636106735616 0.4547737524337323 -0.10473175524177153
leaf_weight=26625 3801 420 11083 2048 565 6263 39 2855 11776
leaf_count=26625 3801 420 11083 2048 565 6263 39 2855 11776
internal_value=0 0.530812 -0.0926281 0.426704 1.41573 0.059279 1.80629 0.349609 -0.161246
internal_weight=0 9728 55747 8704 1024 17346 459 6656 38401
internal_count=65475 9728 55747 8704 1024 17346 459 6656 38401
is_linear=0
shrinkage=0.01


Tree=17
num_leaves=10
num_cat=0
split_feature=61 61 61 61 64 64 64 63 61
split_gain=3.47464e+07 9.2983e+06 6.1182e+06 1.81926e+06 1.61641e+06 881404 782622 579360 467913
threshold=53.08616109434071 137.54082728400547 16.361074433819621 250.53821180716395 79.840979440477653 37.788751255522044 169.58845381224936 8.7691714137548811 90.593012700303333
decision_type=10 10 8 10 8 10 10 10 10
left_child=2 4 7 6 -2 -4 -3 -1 -6
right_child=1 3 5 -5 8 -7 -8 -9 -10
leaf_value=-0.18002385221655398 0.33625128593385578 0.96888629728337616 0.018272005260940451 2.1173303266907482 0.51181194512718942 0.17386667653640511 1.5430677791436516 -0.085679634153411011 0.76986961048164648
leaf_weight=31214 4897 656 11771 257 1448 5271 372 8224 1365
leaf_count=31214 4897 656 11771 257 1448 5271 372 8224 1365
internal_value=0 0.57725 -0.0919328 1.3648 0.445992 0.0663966 1.17666 -0.16035 0.637034
internal_weight=0 8995 56480 1285 7710 17042 1028 39438 2813
internal_count=65475 8995 56480 1285 7710 17042 1028 39438 2813
is_linear=0
shrinkage=0.01


Tree=18
num_leaves=10
num_cat=0
split_feature=61 61 61 64 61 64 64 61 63
split_gain=3.40766e+07 1.02354e+07 4.66887e+06 2.02737e+06 1.78305e+06 767048 580909 530688 521291
threshold=46.589589581145269 137.54082728400547 15.653798299269356 79.840979440477653 250.53821180716395 169.58845381224936 30.405827395811759 90.593012700303333 8.0815177167924741
decision_type=10 10 8 8 10 10 10 10 10
left_child=2 3 8 -2 5 -3 -4 -5 -1
right_child=1 4 6 7 -6 -7 -8 -9 -10
leaf_value=-0.17942498816099622 0.30208412483690406 0.95919743606411834 -0.0071446580060245922 0.4936018291392123 2.0961570358832988 1.5276370957718102 0.11613231107982218 0.76217092187227775 -0.09064888484407041
leaf_weight=30474 6548 656 9239 1596 257 372 6520 1365 8448
leaf_count=30474 6548 656 9239 1596 257 372 6520 1365 8448
internal_value=0 0.513473 -0.101359 0.400273 1.35115 1.1649 0.0438589 0.61741 -0.160156
internal_weight=0 10794 54681 9509 1285 1028 15759 2961 38922
internal_count=65475 10794 54681 9509 1285 1028 15759 2961 38922
is_linear=0
shrinkage=0.01


Tree=19
num_leaves=10
num_cat=0
split_feature=61 61 61 64 63 64 63 61 66
split_gain=3.34217e+07 8.25837e+06 6.73979e+06 2.06309e+06 966032 896251 770903 462488 397738
threshold=57.451827585075669 169.33980337841462 19.330882406810574 102.1206127060447 249.47376473900857 43.129236838755936 8.7691714137548811 87.555847332892668 137.82425646830234
decision_type=10 10 8 8 10 10 10 10 10
left_child=2 3 6 7 -3 -4 -1 -2 -5
right_child=1 4 5 8 -6 -7 -8 -9 -10
leaf_value=-0.17549733817469748 0.34968294192458615 1.4009267980308087 0.044486681409391181 0.7069067596013352 2.2511741810759833 0.2126424898453366 -0.074483973149364377 0.55411189617218526 1.0423119949864481
leaf_weight=31570 3946 599 11652 1213 172 4354 9932 1538 499
leaf_count=31570 3946 599 11652 1213 172 4354 9932 1538 499
internal_value=0 0.607007 -0.084093 0.501621 1.59061 0.0902289 -0.151323 0.407015 0.804668
internal_weight=0 7967 57508 7196 771 16006 41502 5484 1712
internal_count=65475 7967 57508 7196 771 16006 41502 5484 1712
is_linear=0
shrinkage=0.01


Tree=20
num_leaves=10
num_cat=0
split_feature=62 64 64 64 64 62 68 62 68
split_gain=2.99096e+07 9.4184e+06 5.15606e+06 1.8485e+06 1.24931e+06 826224 709917 657463 476872
threshold=47.436135594087013 137.28253956449069 18.137007925324404 73.956162742572005 250.66773996315996 169.30492933965425 37.627052975683576 7.2419657259202888 54.133291595354443
decision_type=10 10 10 8 10 10 8 8 8
left_child=2 3 7 5 -3 8 -4 -1 -2
right_child=1 4 6 -5 -6 -7 -8 -9 -10
leaf_value=-0.17578102074731633 0.16643175617895323 1.1666090545911538 0.023266195824479103 0.56838012076733446 1.9823299323952097 1.3406780653529697 0.1774712395893264 -0.083849161860001131 0.34633944660251753
leaf_weight=29868 2746 950 10330 3378 234 72 4199 10519 3179
leaf_count=29868 2746 950 10330 3378 234 72 4199 10519 3179
internal_value=0 0.487423 -0.0937194 0.381286 1.32782 0.275899 0.0678327 -0.151837 0.262959
internal_weight=0 10559 54916 9375 1184 5997 14529 40387 5925
internal_count=65475 10559 54916 9375 1184 5997 14529 40387 5925
is_linear=0
shrinkage=0.01


Tree=21
num_leaves=10
num_cat=0
split_feature=61 61 61 61 61 64 66 67 67
split_gain=3.21758e+07 9.70079e+06 4.40331e+06 1.91187e+06 1.71103e+06 722575 709227 666162 437660
threshold=46.589589581145269 137.54082728400547 14.284964107043271 76.067571714436909 250.53821180716395 169.58845381224936 98.008993583131925 25.306400841332721 5.9621173675146126
decision_type=10 10 8 10 10 10 8 8 10
left_child=2 3 8 -2 5 -3 -5 -4 -1
right_child=1 4 7 6 -6 -7 -8 -9 -10
leaf_value=-0.18022586827249523 0.27811533547812139 0.93235483294421029 -0.035868090254650188 0.46942560031020797 2.0442607053059083 1.4840694573705875 0.76553337004751643 0.09127647362429897 -0.10571752110226575
leaf_weight=26704 5911 656 7259 2370 257 372 1228 9532 11186
leaf_count=26704 5911 656 7259 2370 257 372 1228 9532 11186
internal_value=0 0.498946 -0.0984917 0.388743 1.31445 1.132 0.570487 0.03631 -0.158229
internal_weight=0 10794 54681 9509 1285 1028 3598 16791 37890
internal_count=65475 10794 54681 9509 1285 1028 3598 16791 37890
is_linear=0
shrinkage=0.01


Tree=22
num_leaves=10
num_cat=0
split_feature=62 67 67 67 8 63 13 13 13
split_gain=2.87616e+07 8.4866e+06 4.96042e+06 2.19038e+06 1.31504e+06 768953 692692 571118 520510
threshold=47.436135594087013 134.61535951578091 17.170470810723021 80.504515076736226 1.379509803921569 42.502089920554731 3.5000000000000004 3.5000000000000004 3.5000000000000004
decision_type=10 10 10 8 2 10 2 2 2
left_child=2 3 -1 6 8 -4 -2 -5 -3
right_child=1 4 5 7 -6 -7 -8 -9 -10
leaf_value=-0.15362932128420456 0.21682880757957107 1.4804774037585315 0.016957804403386453 0.50588047867212871 1.0383700837923662 0.180378832880421 0.42440281190080587 0.80222829342916779 2.1828798380002872
leaf_weight=38624 4365 251 12556 1545 548 3736 2545 1123 182
leaf_count=38624 4365 251 12556 1545 548 3736 2545 1123 182
internal_value=0 0.477977 -0.0919033 0.387247 1.36382 0.0544327 0.29328 0.630618 1.77571
internal_weight=0 10559 54916 9578 981 16292 6910 2668 433
internal_count=65475 10559 54916 9578 981 16292 6910 2668 433
is_linear=0
shrinkage=0.01


Tree=23
num_leaves=10
num_cat=0
split_feature=61 61 61 64 64 67 64 61 61
split_gain=3.10019e+07 7.71527e+06 6.24844e+06 1.91243e+06 904770 834193 761198 431821 373480
threshold=57.451827585075669 169.33980337841462 20.968203619448893 102.1206127060447 250.66773996315996 9.9741767516155821 44.795659579385635 87.555847332892668 98.183266842536781
decision_type=10 10 8 8 10 10 10 10 10
left_child=2 3 5 7 -3 -1 -4 -2 -5
right_child=1 4 6 8 -6 -7 -8 -9 -10
leaf_value=-0.16850458001996987 0.33627333939457232 1.3366915433648554 0.052192794439247861 0.58313556112407339 2.1261102790562147 -0.066423640331053621 0.21431272114361904 0.53380818012158382 0.8885116490068995
leaf_weight=31840 3946 577 11049 639 194 10694 3925 1538 1073
leaf_count=31840 3946 577 11049 639 194 10694 3925 1538 1073
internal_value=0 0.58462 -0.0809916 0.482758 1.53533 -0.142839 0.0946878 0.391672 0.774531
internal_weight=0 7967 57508 7196 771 42534 14974 5484 1712
internal_count=65475 7967 57508 7196 771 42534 14974 5484 1712
is_linear=0
shrinkage=0.01


Tree=24
num_leaves=10
num_cat=0
split_feature=64 67 67 67 64 67 13 68 68
split_gain=2.77528e+07 7.15488e+06 5.61538e+06 1.86482e+06 833518 795702 515144 464990 370039
threshold=54.102937120629427 151.12991587456222 17.170470810723021 89.92663679958865 250.66773996315996 36.256418388119037 3.5000000000000004 5.8784607644163582 79.082539874457112
decision_type=10 10 8 8 10 10 2 10 10
left_child=2 3 7 -2 -3 -4 -5 -1 -9
right_child=1 4 5 6 -6 -7 -8 8 -10
leaf_value=-0.17380167446722447 0.34343320088701373 1.2533763817318311 0.015615437910106644 0.55068304650667244 1.9988017519162253 0.15443484870651819 0.86005460491748442 -0.10318634986423296 0.69742721968683696
leaf_weight=25899 5805 538 12111 1230 208 6265 957 12404 58
leaf_count=25899 5805 538 12111 1230 208 6265 957 12404 58
internal_value=0 0.524618 -0.0807958 0.437192 1.46122 0.0629437 0.68606 -0.149651 -0.0994602
internal_weight=0 8738 56737 7992 746 18376 2187 38361 12462
internal_count=65475 8738 56737 7992 746 18376 2187 38361 12462
is_linear=0
shrinkage=0.01


Tree=25
num_leaves=10
num_cat=0
split_feature=61 61 61 64 61 64 67 61 67
split_gain=2.98802e+07 9.04761e+06 4.08094e+06 1.78213e+06 1.62555e+06 667067 613725 566906 403873
threshold=46.589589581145269 137.54082728400547 14.284964107043271 73.956162742572005 250.53821180716395 169.58845381224936 25.306400841332721 90.593012700303333 5.8006135038846312
decision_type=10 10 8 8 10 10 8 10 10
left_child=2 3 8 -2 5 -3 -4 -5 -1
right_child=1 4 6 7 -6 -7 -8 -9 -10
leaf_value=-0.17386437012162706 0.2676295404671018 0.89873095839034489 -0.034418933024315666 0.44384144026171718 1.9797352806788939 1.4288310200168242 0.087618969881463921 0.69852835263982316 -0.10271083626561396
leaf_weight=26472 5913 656 7259 2098 257 372 9532 1498 11418
leaf_count=26472 5913 656 7259 2098 257 372 9532 1498 11418
internal_value=0 0.480818 -0.0949133 0.374389 1.26839 1.09056 0.0348602 0.549937 -0.152423
internal_weight=0 10794 54681 9509 1285 1028 16791 3596 37890
internal_count=65475 10794 54681 9509 1285 1028 16791 3596 37890
is_linear=0
shrinkage=0.01


Tree=26
num_leaves=10
num_cat=0
split_feature=61 61 61 64 63 67 63 61 61
split_gain=2.93122e+07 7.31071e+06 5.89447e+06 1.80629e+06 885076 840663 696083 407097 368360
threshold=57.451827585075669 169.33980337841462 21.786877757827202 97.654048174401552 249.47376473900857 10.184329386237382 48.192263724809933 94.070840936307619 74.215913296365571
decision_type=10 10 8 8 10 10 10 10 10
left_child=2 3 5 8 -3 -1 -4 -5 -2
right_child=1 4 6 7 -6 -7 -8 -9 -10
leaf_value=-0.16322008687296813 0.28801371301323453 1.3123525052516407 0.057455867458155299 0.53427472999487269 2.1261940248899682 -0.06172252123089482 0.22103143980742343 0.83891340424385918 0.45522403474125872
leaf_weight=32109 2573 599 11056 677 172 10941 3402 1246 2700
leaf_count=32109 2573 599 11056 677 172 10941 3402 1246 2700
internal_value=0 0.568465 -0.0787535 0.46931 1.49391 -0.137425 0.0959456 0.731664 0.373633
internal_weight=0 7967 57508 7196 771 43050 14458 1923 5273
internal_count=65475 7967 57508 7196 771 43050 14458 1923 5273
is_linear=0
shrinkage=0.01


Tree=27
num_leaves=10
num_cat=0
split_feature=61 61 61 61 63 64 63 64 64
split_gain=2.87289e+07 7.16522e+06 5.77717e+06 1.77197e+06 867463 826739 682231 574210 452708
threshold=57.451827585075669 169.33980337841462 21.786877757827202 98.183266842536781 249.47376473900857 9.4182928230888034 48.192263724809933 137.28253956449069 72.097098262985057
decision_type=10 10 8 10 10 10 10 8 10
left_child=2 3 5 8 -3 -1 -4 -5 -2
right_child=1 4 6 7 -6 -7 -8 -9 -10
leaf_value=-0.16093387144122345 0.28537531784953041 1.2992289817213813 0.056881309042067389 0.61862392713136205 2.1049320746854296 -0.058873600722995766 0.21882112501244957 1.0095034267228058 0.47547122680887377
leaf_weight=32554 2977 599 11056 1561 172 10496 3402 495 2163
leaf_count=32554 2977 599 11056 1561 172 10496 3402 495 2163
internal_value=0 0.56278 -0.077966 0.464617 1.47897 -0.136051 0.0949861 0.712732 0.365371
internal_weight=0 7967 57508 7196 771 43050 14458 2056 5140
internal_count=65475 7967 57508 7196 771 43050 14458 2056 5140
is_linear=0
shrinkage=0.01


Tree=28
num_leaves=10
num_cat=0
split_feature=61 61 61 64 61 65 67 61 67
split_gain=2.818e+07 8.53474e+06 3.84655e+06 1.68155e+06 1.55746e+06 637532 584198 532143 383778
threshold=46.589589581145269 137.54082728400547 14.284964107043271 73.956162742572005 250.53821180716395 169.75927548688301 25.306400841332721 90.593012700303333 5.8006135038846312
decision_type=10 10 8 8 10 10 8 10 10
left_child=2 3 8 -2 5 -3 -4 -5 -1
right_child=1 4 6 7 -6 -7 -8 -9 -10
leaf_value=-0.16890832222904137 0.25986658381211258 0.8907513664757416 -0.033773828281851374 0.43130089357138401 1.9281505600951525 1.4290573321567808 0.085292188192641907 0.67805555767883297 -0.099547572139245852
leaf_weight=26472 5913 709 7259 2098 257 319 9532 1498 11418
leaf_count=26472 5913 709 7259 2098 257 319 9532 1498 11418
internal_value=0 0.466939 -0.0921734 0.36357 1.23187 1.05779 0.0338182 0.534092 -0.148007
internal_weight=0 10794 54681 9509 1285 1028 16791 3596 37890
internal_count=65475 10794 54681 9509 1285 1028 16791 3596 37890
is_linear=0
shrinkage=0.01


Tree=29
num_leaves=10
num_cat=0
split_feature=61 61 61 64 64 67 64 66 66
split_gain=2.76218e+07 6.89052e+06 5.55213e+06 1.71469e+06 833584 825300 632556 393894 343274
threshold=57.451827585075669 169.33980337841462 22.205751222151793 102.1206127060447 250.66773996315996 11.345811434577174 44.795659579385635 80.048455002478235 137.82425646830234
decision_type=10 10 8 8 10 10 10 10 10
left_child=2 3 5 7 -3 -1 -4 -2 -5
right_child=1 4 6 8 -6 -7 -8 -9 -10
leaf_value=-0.15663318073640217 0.31564236006359953 1.259626110668199 0.054164004813192612 0.64102198056612536 2.0173538610431336 -0.05304731307185117 0.20384242530216423 0.50313239980626645 0.95261804515230863
leaf_weight=33307 3914 577 10312 1213 194 10001 3888 1570 499
leaf_count=33307 3914 577 10312 1213 194 10001 3888 1570 499
internal_value=0 0.55183 -0.076449 0.455567 1.45029 -0.132712 0.0951464 0.369318 0.731843
internal_weight=0 7967 57508 7196 771 43308 14200 5484 1712
internal_count=65475 7967 57508 7196 771 43308 14200 5484 1712
is_linear=0
shrinkage=0.01


Tree=30
num_leaves=10
num_cat=0
split_feature=61 61 61 61 61 65 66 67 67
split_gain=2.70914e+07 8.21143e+06 3.69734e+06 1.63207e+06 1.50799e+06 615280 615002 564028 370532
threshold=46.589589581145269 137.54082728400547 14.284964107043271 76.067571714436909 250.53821180716395 169.75927548688301 98.008993583131925 25.306400841332721 5.8006135038846312
decision_type=10 10 8 10 10 10 8 8 10
left_child=2 3 8 -2 5 -3 -5 -4 -1
right_child=1 4 7 6 -6 -7 -8 -9 -10
leaf_value=-0.16565290006068931 0.2542265718589069 0.87274328649842692 -0.033266662200390658 0.43024948075545738 1.8932654577319725 1.4015713752096164 0.70598666858595438 0.083725903564766571 -0.097499611023227642
leaf_weight=26472 5911 709 7259 2370 257 319 1228 9532 11418
leaf_count=26472 5911 709 7259 2370 257 319 1228 9532 11418
internal_value=0 0.45783 -0.0903755 0.356439 1.20813 1.03684 0.524359 0.0331483 -0.145115
internal_weight=0 10794 54681 9509 1285 1028 3598 16791 37890
internal_count=65475 10794 54681 9509 1285 1028 3598 16791 37890
is_linear=0
shrinkage=0.01


Tree=31
num_leaves=10
num_cat=0
split_feature=61 61 61 61 61 65 66 67 3
split_gain=2.65522e+07 8.04802e+06 3.62376e+06 1.5996e+06 1.47798e+06 603036 602763 552804 375383
threshold=46.589589581145269 137.54082728400547 14.284964107043271 76.067571714436909 250.53821180716395 169.75927548688301 98.008993583131925 25.306400841332721 1.5000000000000002
decision_type=10 10 8 10 10 10 8 8 2
left_child=2 3 -1 -2 5 -3 -5 -4 -6
right_child=1 4 7 6 8 -7 -8 -9 -10
leaf_value=-0.14366403454187057 0.25168430663352209 0.86401585125683567 -0.0329339953164186 0.42594698466922021 2.7644976196289064 1.3875556521131702 0.6989268031500353 0.08288864469371561 1.7102471240819324
leaf_weight=37890 5911 709 7259 2370 40 319 1228 9532 217
leaf_count=37890 5911 709 7259 2370 40 319 1228 9532 217
internal_value=0 0.453252 -0.0894717 0.352874 1.19605 1.02648 0.519115 0.0328168 1.87433
internal_weight=0 10794 54681 9509 1285 1028 3598 16791 257
internal_count=65475 10794 54681 9509 1285 1028 3598 16791 257
is_linear=0
shrinkage=0.01


Tree=32
num_leaves=10
num_cat=0
split_feature=64 64 67 67 67 67 68 64 68
split_gain=2.38883e+07 6.44319e+06 4.49945e+06 1.48566e+06 1.05218e+06 596050 403719 402017 333577
threshold=52.050221641314153 137.28253956449069 17.170470810723021 174.72002051802983 80.504515076736226 35.102176496554002 5.8784607644163582 250.66773996315996 79.082539874457112
decision_type=10 10 8 8 8 10 10 10 10
left_child=2 4 6 -3 -2 -4 -1 -5 -8
right_child=1 3 5 7 -6 -7 8 -9 -10
leaf_value=-0.16103769918173985 0.28811631324109149 0.87319923862525217 0.010982670305493381 1.3396223002067509 0.53692532553680794 0.13188841031019891 -0.095300080018444117 1.9411177491628997 0.66484591073003318
leaf_weight=25899 5509 823 11568 276 2458 6297 12401 186 58
leaf_count=25899 5509 823 11568 276 2458 6297 12401 186 58
internal_value=0 0.470863 -0.0774847 1.12796 0.36488 0.0535992 -0.138536 1.58178 -0.0917614
internal_weight=0 9252 56223 1285 7967 17865 38358 462 12459
internal_count=65475 9252 56223 1285 7967 17865 38358 462 12459
is_linear=0
shrinkage=0.01


Tree=33
num_leaves=10
num_cat=0
split_feature=61 61 61 64 63 63 63 61 61
split_gain=2.56033e+07 6.40816e+06 5.13931e+06 1.59866e+06 807411 775684 608675 361250 326730
threshold=57.451827585075669 169.33980337841462 22.205751222151793 97.654048174401552 249.47376473900857 8.7691714137548811 48.192263724809933 94.070840936307619 74.215913296365571
decision_type=10 10 8 8 10 10 10 10 10
left_child=2 3 5 8 -3 -1 -4 -5 -2
right_child=1 4 6 7 -6 -7 -8 -9 -10
leaf_value=-0.15318564287515979 0.26780543309426297 1.2243141424795223 0.05485492422872798 0.49932458971240495 2.00162873586943 -0.057361884744305133 0.20849348996523318 0.78629694495595293 0.42528393944584664
leaf_weight=31805 2573 599 10814 677 172 11503 3386 1246 2700
leaf_count=31805 2573 599 10814 677 172 11503 3386 1246 2700
internal_value=0 0.531284 -0.0736027 0.438452 1.39772 -0.127734 0.0914901 0.685267 0.348441
internal_weight=0 7967 57508 7196 771 43308 14200 1923 5273
internal_count=65475 7967 57508 7196 771 43308 14200 1923 5273
is_linear=0
shrinkage=0.01


Tree=34
num_leaves=10
num_cat=0
split_feature=61 61 64 64 64 61 61 61 61
split_gain=2.50978e+07 7.62951e+06 3.42392e+06 1.71249e+06 1.33039e+06 581151 497055 439600 353088
threshold=46.589589581145269 125.97709445914417 17.008578215563762 169.58845381224936 73.956162742572005 250.53821180716395 7.1445739860310677 27.818471457292208 84.772767412341537
decision_type=10 10 10 10 10 10 8 10 10
left_child=2 4 6 -3 -2 -5 -1 -4 -6
right_child=1 3 7 5 8 -7 -8 -9 -10
leaf_value=-0.1564575161168559 0.24195140825921763 0.83169777857299143 -0.0097128372170429064 1.3064570040489312 0.39483772671861367 1.9875435564020176 -0.074988664963795429 0.098442306702715893 0.60078835852662471
leaf_weight=29569 5910 958 7979 402 1772 182 10029 7104 1570
leaf_count=29569 5910 958 7979 402 1772 182 10029 7104 1570
internal_value=0 0.440663 -0.0869867 1.09189 0.332125 1.51871 -0.135824 0.0412276 0.491589
internal_weight=0 10794 54681 1542 9252 584 39598 15083 3342
internal_count=65475 10794 54681 1542 9252 584 39598 15083 3342
is_linear=0
shrinkage=0.01


Tree=35
num_leaves=10
num_cat=0
split_feature=61 61 61 64 63 64 63 66 66
split_gain=2.46177e+07 6.0492e+06 5.11971e+06 1.4794e+06 782175 747928 637541 341574 333015
threshold=58.802874706634334 169.33980337841462 22.205751222151793 102.1206127060447 249.47376473900857 8.2756030200196626 48.192263724809933 80.048455002478235 197.83819709652258
decision_type=10 10 8 8 10 10 10 10 10
left_child=2 3 5 7 8 -1 -4 -2 -3
right_child=1 4 6 -5 -6 -7 -8 -9 -10
leaf_value=-0.15084474610675241 0.30202269223357991 1.0340825184583664 0.054244934027487812 0.69341101262819071 1.9654616837168848 -0.057801953993814888 0.20858961352356226 0.47935192546895639 1.5346799685607604
leaf_weight=31387 3698 400 10911 1703 172 11921 3546 1538 199
leaf_count=31387 3698 400 10911 1703 172 11921 3546 1538 199
internal_value=0 0.530752 -0.0708404 0.437383 1.37107 -0.125234 0.0921025 0.354111 1.20039
internal_weight=0 7710 57765 6939 771 43308 14457 5236 599
internal_count=65475 7710 57765 6939 771 43308 14457 5236 599
is_linear=0
shrinkage=0.01


Tree=36
num_leaves=10
num_cat=0
split_feature=64 67 67 67 64 68 67 13 68
split_gain=2.2135e+07 5.78233e+06 4.43361e+06 1.47572e+06 701199 604865 450312 446168 316545
threshold=54.102937120629427 151.12991587456222 21.634195421042438 89.92663679958865 250.66773996315996 7.628256958793016 41.456694196272714 3.5000000000000004 79.082539874457112
decision_type=10 10 8 8 10 10 10 2 10
left_child=2 3 5 -2 -3 -1 -4 -5 -7
right_child=1 4 6 7 -6 8 -8 -9 -10
leaf_value=-0.15165390214300969 0.30652148033349963 1.1198748556610378 0.040379326322955642 0.48532654964826938 1.8035773547796103 -0.073561904690683536 0.16164106168350806 0.77324203693256366 0.61551312902080479
leaf_weight=28218 5805 538 10816 1230 208 13364 4272 957 67
leaf_count=28218 5805 538 10816 1230 208 13364 4272 957 67
internal_value=0 0.468521 -0.0721564 0.389928 1.31051 -0.125362 0.0747132 0.611314 -0.0701245
internal_weight=0 8738 56737 7992 746 41649 15088 2187 13431
internal_count=65475 8738 56737 7992 746 41649 15088 2187 13431
is_linear=0
shrinkage=0.01


Tree=37
num_leaves=10
num_cat=0
split_feature=61 61 61 61 63 63 63 63 63
split_gain=2.37247e+07 5.84272e+06 4.9275e+06 1.43186e+06 768584 756545 581833 408651 395863
threshold=58.802874706634334 169.33980337841462 23.037325652049145 102.53408505030308 8.7691714137548811 249.47376473900857 48.192263724809933 74.108049722938844 126.27104523690944
decision_type=10 10 8 10 10 10 10 10 8
left_child=2 3 4 7 -1 -3 -4 -2 -5
right_child=1 5 6 8 -6 -7 -8 -9 -10
leaf_value=-0.14730590292356036 0.27298355916203959 1.1790291379708082 0.056670394143192547 0.57583408370496347 -0.053315396031547078 1.9314606683198796 0.20538745822148349 0.45578596469414351 0.9007024300970683
leaf_weight=31855 3135 599 10422 1266 11969 172 3519 2005 533
leaf_count=31855 3135 599 10422 1266 11969 172 3519 2005 533
internal_value=0 0.521036 -0.0695436 0.429274 -0.121636 1.34689 0.0942097 0.344291 0.672085
internal_weight=0 7710 57765 6939 43824 771 13941 5140 1799
internal_count=65475 7710 57765 6939 43824 771 13941 5140 1799
is_linear=0
shrinkage=0.01


Tree=38
num_leaves=10
num_cat=0
split_feature=61 61 61 64 64 61 67 61 67
split_gain=2.32691e+07 7.09897e+06 3.17333e+06 1.59656e+06 1.23291e+06 551541 485224 329406 322169
threshold=46.589589581145269 125.97709445914417 14.284964107043271 169.58845381224936 73.956162742572005 250.53821180716395 25.306400841332721 84.772767412341537 5.8006135038846312
decision_type=10 10 8 10 10 10 8 10 10
left_child=2 4 8 -3 -2 -5 -4 -6 -1
right_child=1 3 6 5 7 -7 -8 -9 -10
leaf_value=-0.15362079446509755 0.23280170907083797 0.80125151879144429 -0.030922242051022716 1.2578266614290019 0.37966979761912784 1.9213356031690325 0.077590052978377969 0.5785939203349838 -0.090070769962727282
leaf_weight=26472 5910 958 7259 402 1772 182 9532 1570 11418
leaf_count=26472 5910 958 7259 402 1772 182 9532 1570 11418
internal_value=0 0.424306 -0.0837577 1.05248 0.319609 1.46461 0.0306786 0.47312 -0.13447
internal_weight=0 10794 54681 1542 9252 584 16791 3342 37890
internal_count=65475 10794 54681 1542 9252 584 16791 3342 37890
is_linear=0
shrinkage=0.01


Tree=39
num_leaves=10
num_cat=0
split_feature=61 61 61 64 64 63 63 66 66
split_gain=2.28101e+07 5.62472e+06 4.73628e+06 1.37691e+06 791720 732896 538158 320667 315723
threshold=58.802874706634334 169.33980337841462 23.859553310661003 102.1206127060447 9.920761688519212 249.47376473900857 48.192263724809933 80.048455002478235 197.83819709652258
decision_type=10 10 8 8 10 10 10 10 10
left_child=2 3 4 7 -1 8 -4 -2 -3
right_child=1 5 6 -5 -6 -7 -8 -9 -10
leaf_value=-0.14253460052937961 0.29005664870520198 0.99404548013359306 0.05888187353690371 0.6678613119876462 -0.04519326305097008 1.8965567505359651 0.20329853481796559 0.46187341154115791 1.481472904639852
leaf_weight=33171 3698 400 9940 1703 11169 172 3485 1538 199
leaf_count=33171 3698 400 9940 1703 11169 172 3485 1538 199
internal_value=0 0.510895 -0.06819 0.420862 -0.118015 1.32119 0.096371 0.340525 1.15598
internal_weight=0 7710 57765 6939 44340 771 13425 5236 599
internal_count=65475 7710 57765 6939 44340 771 13425 5236 599
is_linear=0
shrinkage=0.01


Tree=40
num_leaves=10
num_cat=0
split_feature=61 61 61 61 61 66 65 61 3
split_gain=2.23709e+07 6.83779e+06 3.05221e+06 1.36748e+06 1.31065e+06 523868 520203 475721 357020
threshold=46.589589581145269 137.54082728400547 13.666976223698125 76.067571714436909 250.53821180716395 98.008993583131925 169.75927548688301 30.602382469130461 1.5000000000000002
decision_type=10 10 8 10 10 8 10 10 2
left_child=2 3 -1 -2 6 -5 -3 -4 -6
right_child=1 4 7 5 8 -7 -8 -9 -10
leaf_value=-0.13296645952996028 0.22995240275824491 0.79013317982804132 -0.012625590056468886 0.39036232211403077 2.6075652008056642 0.64485078550653741 1.2763887655137101 0.095887567354847353 1.5794232266454653
leaf_weight=37374 5911 709 10881 2370 40 1228 319 6426 217
leaf_count=37374 5911 709 10881 2370 40 1228 319 6426 217
internal_value=0 0.416036 -0.0821253 0.323513 1.10071 0.477219 0.941024 0.0276648 1.73945
internal_weight=0 10794 54681 9509 1285 3598 1028 17307 257
internal_count=65475 10794 54681 9509 1285 3598 1028 17307 257
is_linear=0
shrinkage=0.01


Tree=41
num_leaves=10
num_cat=0
split_feature=61 61 64 61 66 61 61 63 3
split_gain=2.1928e+07 5.97152e+06 3.84524e+06 1.28457e+06 1.07935e+06 565850 532987 514542 349915
threshold=53.08616109434071 137.54082728400547 18.530018377496585 250.53821180716395 90.722772867205165 32.102656740605688 8.1316925890566392 137.05270601080295 1.5000000000000002
decision_type=10 10 10 10 10 10 8 10 2
left_child=2 4 6 7 -2 -4 -1 -3 -5
right_child=1 3 5 8 -6 -7 -8 -9 -10
leaf_value=-0.1448136622043332 0.28553405013054828 0.725480472404751 0.0078868602947980999 2.5814895401000979 0.55971062644738201 0.12901602219764052 -0.060318658518338175 1.1744313037850089 1.5636290060869562
leaf_weight=30867 5802 556 9040 40 1908 6726 9847 472 217
leaf_count=30867 5802 556 9040 40 1908 6726 9847 472 217
internal_value=0 0.458573 -0.0730323 1.0897 0.353385 0.0595623 -0.124378 0.931614 1.72205
internal_weight=0 8995 56480 1285 7710 15766 40714 1028 257
internal_count=65475 8995 56480 1285 7710 15766 40714 1028 257
is_linear=0
shrinkage=0.01


Tree=42
num_leaves=10
num_cat=0
split_feature=61 61 61 61 63 63 63 64 63
split_gain=2.15025e+07 5.30836e+06 4.46627e+06 1.31691e+06 704219 666760 567132 417979 383319
threshold=58.802874706634334 169.33980337841462 22.205751222151793 102.53408505030308 249.47376473900857 8.7691714137548811 48.192263724809933 137.28253956449069 74.108049722938844
decision_type=10 10 8 10 10 10 10 8 10
left_child=2 3 5 8 -3 -1 -4 -5 -2
right_child=1 4 6 7 -6 -7 -8 -9 -10
leaf_value=-0.14060745530973048 0.25800756344292164 1.1212667018053228 0.050277035823032334 0.55143799654671688 1.84721137576325 -0.051766046410493136 0.19584959718997572 0.89960547993772777 0.43505332622110393
leaf_weight=31805 3135 599 10911 1334 172 11503 3546 465 2005
leaf_count=31805 3135 599 10911 1334 172 11503 3546 465 2005
internal_value=0 0.496035 -0.0662067 0.40857 1.28322 -0.11701 0.0859829 0.641431 0.327069
internal_weight=0 7710 57765 6939 771 43308 14457 1799 5140
internal_count=65475 7710 57765 6939 771 43308 14457 1799 5140
is_linear=0
shrinkage=0.01


Tree=43
num_leaves=10
num_cat=0
split_feature=61 61 64 64 64 61 61 61 61
split_gain=2.10912e+07 6.45083e+06 2.90156e+06 1.47611e+06 1.13985e+06 505509 423661 369961 302529
threshold=46.589589581145269 125.97709445914417 17.008578215563762 169.58845381224936 73.956162742572005 250.53821180716395 7.1445739860310677 31.578986248788613 90.593012700303333
decision_type=10 10 10 10 10 10 8 10 10
left_child=2 4 6 -3 -2 -5 -1 -4 -6
right_child=1 3 7 5 8 -7 -8 -9 -10
leaf_value=-0.14374899392806861 0.22069211378089992 0.76120735503950931 0.0015103066924148417 1.201086275309176 0.37703732882742602 1.8363036252116109 -0.068534985806445722 0.10498188804107708 0.5729045057250004
leaf_weight=29569 5910 958 9722 402 2067 182 10029 5361 1275
leaf_count=29569 5910 958 9722 402 2067 182 10029 5361 1275
internal_value=0 0.403961 -0.0797418 1.00278 0.304159 1.39905 -0.1247 0.0382875 0.451762
internal_weight=0 10794 54681 1542 9252 584 39598 15083 3342
internal_count=65475 10794 54681 1542 9252 584 39598 15083 3342
is_linear=0
shrinkage=0.01


Tree=44
num_leaves=10
num_cat=0
split_feature=61 61 61 64 62 64 67 66 65
split_gain=2.06849e+07 4.96168e+06 4.66359e+06 1.07326e+06 733563 679021 632734 269631 249561
threshold=64.340324707295608 23.859553310661003 169.33980337841462 102.1206127060447 9.6882196209779607 250.66773996315996 47.452113725737355 137.82425646830234 150.55685884839687
decision_type=10 8 10 8 10 10 10 10 10
left_child=1 4 3 -2 -1 8 -3 -5 -4
right_child=2 6 5 7 -6 -7 -8 -9 -10
leaf_value=-0.1358839682600009 0.34768309496212624 0.060075594321443389 0.89296116244349277 0.56443220496152058 -0.042012534594323282 1.7705227405385873 0.20799992804816061 0.84309860048390406 1.3099546452422641
leaf_weight=33233 4253 10456 309 1163 11107 194 3997 495 268
leaf_count=33233 4253 10456 309 1163 11107 194 3997 495 268
internal_value=0 -0.0599211 0.527228 0.431816 -0.11237 1.25872 0.100984 0.647629 1.08664
internal_weight=0 58793 6682 5911 44340 771 14453 1658 577
internal_count=65475 58793 6682 5911 44340 771 14453 1658 577
is_linear=0
shrinkage=0.01


Tree=45
num_leaves=10
num_cat=0
split_feature=61 61 63 61 63 65 61 61 3
split_gain=2.02776e+07 6.20919e+06 2.79986e+06 1.41944e+06 1.06749e+06 594198 426121 353190 339551
threshold=46.589589581145269 125.97709445914417 17.415902111557767 250.53821180716395 74.108049722938844 169.75927548688301 6.5304452119366188 27.818471457292208 1.5000000000000002
decision_type=10 10 10 10 10 10 8 10 2
left_child=2 4 6 5 -2 -3 -1 -4 -5
right_child=1 3 7 8 -6 -7 -8 -9 -10
leaf_value=-0.1419044386057253 0.21926696684584568 0.71555978888286031 -0.0063383371165518952 2.5086241760253909 0.44439292128107966 1.1973098259809671 -0.068565700422894282 0.091522680580928994 1.5059515072563279
leaf_weight=28947 6009 932 7937 40 3243 353 10908 6889 217
leaf_count=28947 6009 932 7937 40 3243 353 10908 6889 217
internal_value=0 0.396093 -0.0781886 0.983585 0.298178 0.8479 -0.121832 0.0391334 1.66201
internal_weight=0 10794 54681 1542 9252 1285 39855 14826 257
internal_count=65475 10794 54681 1542 9252 1285 39855 14826 257
is_linear=0
shrinkage=0.01


Tree=46
num_leaves=10
num_cat=0
split_feature=61 61 61 63 62 63 63 64 61
split_gain=1.99037e+07 4.76353e+06 4.48411e+06 1.04385e+06 707823 667536 609699 301787 299734
threshold=64.340324707295608 23.859553310661003 169.33980337841462 102.39226830778594 8.0599855411770012 249.47376473900857 48.192263724809933 137.28253956449069 106.89336612293148
decision_type=10 8 10 8 10 10 10 10 10
left_child=1 4 3 8 -1 -4 -3 -5 -2
right_child=2 6 5 7 -6 -7 -8 -9 -10
leaf_value=-0.13566266679104313 0.30322689446138157 0.057701611163409751 1.0767810742280919 0.55348954852858034 -0.047551157144668184 1.7835655684526577 0.20132279742664647 0.85550407500783354 0.51628785478993611
leaf_weight=31511 3515 10309 599 1112 12829 172 4144 471 813
leaf_count=31511 3515 10309 599 1112 12829 172 4144 471 813
internal_value=0 -0.0587786 0.517176 0.423618 -0.110169 1.23446 0.098881 0.64335 0.34325
internal_weight=0 58793 6682 5911 44340 771 14453 1583 4328
internal_count=65475 58793 6682 5911 44340 771 14453 1583 4328
is_linear=0
shrinkage=0.01


Tree=47
num_leaves=10
num_cat=0
split_feature=61 61 61 64 67 67 64 61 66
split_gain=1.95087e+07 5.01027e+06 4.15703e+06 935140 702374 694542 651962 228395 212366
threshold=67.291991117139801 23.859553310661003 169.33980337841462 107.01215593874716 12.377333844466452 47.452113725737355 250.66773996315996 250.53821180716395 137.82425646830234
decision_type=10 8 10 8 10 10 10 10 10
left_child=1 4 3 -2 -1 -3 7 -4 -5
right_child=2 5 6 8 -6 -7 -8 -9 -10
leaf_value=-0.1305547880139139 0.35896099049835128 0.058590581332785455 0.93291863054460822 0.57136657067744079 -0.035346605327582083 0.20813568804030641 1.7236107566430396 1.3817763695601495 0.83143393318950498
leaf_weight=34333 3990 10569 422 934 10007 4398 194 155 473
leaf_count=34333 3990 10569 422 934 10007 4398 194 155 473
internal_value=0 -0.0556667 0.535251 0.437128 -0.109067 0.102534 1.22211 1.0535 0.658795
internal_weight=0 59307 6168 5397 44340 14967 771 577 1407
internal_count=65475 59307 6168 5397 44340 14967 771 577 1407
is_linear=0
shrinkage=0.01


Tree=48
num_leaves=10
num_cat=0
split_feature=61 61 64 64 64 61 61 61 61
split_gain=1.91289e+07 5.86127e+06 2.65121e+06 1.35805e+06 1.05283e+06 466893 384819 334147 296313
threshold=46.589589581145269 125.97709445914417 17.008578215563762 169.58845381224936 73.956162742572005 250.53821180716395 6.5304452119366188 31.578986248788613 90.593012700303333
decision_type=10 10 10 10 8 10 8 10 10
left_child=2 4 6 -3 -2 -5 -1 -4 -6
right_child=1 3 7 5 8 -7 -8 -9 -10
leaf_value=-0.13790364086376708 0.20858828703919038 0.72379858099219685 0.0019292539708712967 1.1453505353903888 0.35683894968404745 1.7558231284068182 -0.067734238846230352 0.10026511317661069 0.54966782411248771
leaf_weight=28883 5869 958 9722 402 2098 182 10715 5361 1285
leaf_count=28883 5869 958 9722 402 2098 182 10715 5361 1285
internal_value=0 0.384711 -0.0759417 0.955506 0.289578 1.3356 -0.118916 0.0368811 0.430083
internal_weight=0 10794 54681 1542 9252 584 39598 15083 3383
internal_count=65475 10794 54681 1542 9252 584 39598 15083 3383
is_linear=0
shrinkage=0.01


Tree=49
num_leaves=10
num_cat=0
split_feature=64 64 62 67 62 67 68 67 64
split_gain=1.73613e+07 4.59462e+06 3.72708e+06 1.1043e+06 868045 664144 494875 399716 326261
threshold=54.102937120629427 137.28253956449069 18.590203941817105 174.72002051802983 169.30492933965425 80.504515076736226 32.777253767479941 5.8006135038846312 250.66773996315996
decision_type=10 10 8 8 10 8 8 10 10
left_child=2 5 7 -3 6 -2 -4 -1 -5
right_child=1 3 4 8 -6 -7 -8 -9 -10
leaf_value=-0.13773408168783585 0.25382233422419054 0.74754109616919817 0.009862816066033165 1.1402930879592896 1.2752945544052932 0.45494533727837938 0.12129634185056576 -0.071637390514869878 1.682159550830882
leaf_weight=26649 5011 823 8837 276 59 2442 7259 13933 186
leaf_count=26649 5011 823 8837 276 59 2442 7259 13933 186
internal_value=0 0.414936 -0.0639038 0.967182 0.0645553 0.319721 0.0601173 -0.115041 1.35845
internal_weight=0 8738 56737 1285 16155 7453 16096 40582 462
internal_count=65475 8738 56737 1285 16155 7453 16096 40582 462
is_linear=0
shrinkage=0.01


Tree=50
num_leaves=10
num_cat=0
split_feature=64 64 62 67 62 66 68 67 62
split_gain=1.70189e+07 4.68096e+06 3.44406e+06 1.08233e+06 850771 735186 448670 371849 320692
threshold=52.050221641314153 137.28253956449069 18.197547949343193 174.72002051802983 169.30492933965425 80.048455002478235 32.777253767479941 5.8006135038846312 64.083412220473562
decision_type=10 10 8 8 10 10 8 10 10
left_child=2 5 7 8 6 -2 -4 -1 -3
right_child=1 3 4 -5 -6 -7 -8 -9 -10
leaf_value=-0.13637165934192047 0.23673689185076716 0.24270635077729821 0.0082586317600374902 1.3448626467675875 1.2679802431012024 0.43824524248379071 0.11557293272232849 -0.072186357606118592 0.81841202295279203
leaf_weight=26637 5185 112 9015 462 58 2782 6861 13652 711
leaf_count=26637 5185 112 9015 462 58 2782 6861 13652 711
internal_value=0 0.397436 -0.0654017 0.95751 0.0590524 0.307102 0.0546358 -0.114622 0.740066
internal_weight=0 9252 56223 1285 15934 7967 15876 40289 823
internal_count=65475 9252 56223 1285 15934 7967 15876 40289 823
is_linear=0
shrinkage=0.01


Tree=51
num_leaves=10
num_cat=0
split_feature=61 61 61 63 62 68 63 63 66
split_gain=1.81404e+07 4.63121e+06 3.87242e+06 890415 646128 641531 624336 278161 265179
threshold=67.291991117139801 23.859553310661003 169.33980337841462 102.39226830778594 7.2419657259202888 49.027551141885581 249.47376473900857 9.190555519597746 197.83819709652258
decision_type=10 8 10 8 10 10 10 8 10
left_child=1 4 3 -2 -1 -3 7 -4 -9
right_child=2 5 6 -5 -6 -7 -8 8 -10
leaf_value=-0.1307022494268319 0.34089881657067422 0.060140491596024179 1.7737509503831035 0.62629144347098531 -0.048279852246776125 0.21039496953652218 1.7101146981328033 0.80536844421754394 1.2659016651632897
leaf_weight=30524 3874 11154 46 1523 13816 3813 172 362 191
leaf_count=30524 3874 11154 46 1523 13816 3813 172 362 191
internal_value=0 -0.0536791 0.516139 0.421435 -0.10502 0.0984194 1.17907 1.02658 0.964431
internal_weight=0 59307 6168 5397 44340 14967 771 599 553
internal_count=65475 59307 6168 5397 44340 14967 771 599 553
is_linear=0
shrinkage=0.01


Tree=52
num_leaves=10
num_cat=0
split_feature=61 61 61 63 64 67 61 3 64
split_gain=1.77794e+07 4.53905e+06 3.79536e+06 872696 638002 630632 613537 326685 257041
threshold=67.291991117139801 23.859553310661003 169.33980337841462 102.39226830778594 9.6725348940009059 47.452113725737355 250.53821180716395 1.5000000000000002 137.28253956449069
decision_type=10 8 10 8 10 10 10 2 8
left_child=1 4 3 -2 -1 -3 -4 -8 -5
right_child=2 5 6 8 -6 -7 7 -9 -10
leaf_value=-0.12628918212637402 0.33748982773921621 0.055562475973549928 0.96780886047603087 0.53109210084064029 -0.039501627742768927 0.19806112388275959 2.3966398277282717 1.4131469543793236 0.80979617751061672
leaf_weight=32937 3874 10569 514 1037 11403 4398 40 217 486
leaf_count=32937 3874 10569 514 1037 11403 4398 40 217 486
internal_value=0 -0.0531423 0.510978 0.417221 -0.10397 0.0974352 1.16728 1.56622 0.620029
internal_weight=0 59307 6168 5397 44340 14967 771 257 1523
internal_count=65475 59307 6168 5397 44340 14967 771 257 1523
is_linear=0
shrinkage=0.01


Tree=53
num_leaves=10
num_cat=0
split_feature=61 61 64 64 61 61 61 3 64
split_gain=1.74278e+07 4.12686e+06 3.88018e+06 1.0073e+06 612546 601328 517973 320184 245730
threshold=61.297195640440073 169.33980337841462 20.453803296093305 97.654048174401552 36.615211471504772 250.53821180716395 8.1316925890566392 1.5000000000000002 137.28253956449069
decision_type=10 10 10 8 10 10 8 2 10
left_child=2 3 6 -2 -4 -3 -1 -7 -5
right_child=1 5 4 8 -6 7 -8 -9 -10
leaf_value=-0.12890580937914492 0.30092960734335483 0.95813077280841452 0.023520186008533912 0.49658228399776222 0.14878079794760601 2.3726734189987186 -0.0490899413179616 1.3990154843341369 0.74059557415143906
leaf_weight=31043 4549 514 9675 1263 6545 40 11016 217 613
leaf_count=31043 4549 514 9675 1263 6545 40 11016 217 613
internal_value=0 0.464295 -0.0573289 0.381338 0.0740646 1.15561 -0.108001 1.55056 0.576316
internal_weight=0 7196 58279 6425 16220 771 42059 257 1876
internal_count=65475 7196 58279 6425 16220 771 42059 257 1876
is_linear=0
shrinkage=0.01


Tree=54
num_leaves=10
num_cat=0
split_feature=61 61 61 66 67 64 64 64 65
split_gain=1.70909e+07 4.36684e+06 3.6438e+06 833564 617364 613671 594441 223601 222103
threshold=67.291991117139801 23.859553310661003 169.33980337841462 107.25089604322135 12.377333844466452 44.795659579385635 250.66773996315996 137.28253956449069 150.55685884839687
decision_type=10 8 10 8 10 10 10 10 10
left_child=1 4 3 -2 -1 -3 8 -5 -4
right_child=2 5 6 7 -6 -7 -8 -9 -10
leaf_value=-0.12210230400694214 0.33574611721432829 0.049136499205008989 0.80032861669376065 0.53138995057403848 -0.032841562737070333 0.18385343103415189 1.6229166695951802 0.80129370870297423 1.1937142328539891
leaf_weight=34333 4002 9806 309 939 10007 5161 194 456 268
leaf_count=34333 4002 9806 309 939 10007 5161 194 456 268
internal_value=0 -0.0521032 0.500986 0.40912 -0.101957 0.0955903 1.14405 0.619617 0.983045
internal_weight=0 59307 6168 5397 44340 14967 771 1395 577
internal_count=65475 59307 6168 5397 44340 14967 771 1395 577
is_linear=0
shrinkage=0.01


Tree=55
num_leaves=10
num_cat=0
split_feature=61 61 63 61 63 65 61 61 61
split_gain=1.67646e+07 5.18158e+06 2.33338e+06 1.20702e+06 912488 504458 350497 288221 281602
threshold=46.589589581145269 125.97709445914417 17.415902111557767 250.53821180716395 74.108049722938844 169.75927548688301 6.5304452119366188 31.578986248788613 84.772767412341537
decision_type=10 10 10 10 10 10 8 10 10
left_child=2 4 6 5 -2 -3 -1 -4 -6
right_child=1 3 7 -5 8 -7 -8 -9 -10
leaf_value=-0.12914047478718471 0.19774845466316307 0.64977348541177393 0.0035602281507547844 1.522436961988531 0.32589071366044053 1.0936568142266854 -0.062627062325409572 0.095918960696357344 0.51443339423969558
leaf_weight=28947 6009 932 9617 257 1867 353 10908 5209 1376
leaf_count=28947 6009 932 9617 257 1867 353 10908 5209 1376
internal_value=0 0.360152 -0.0710939 0.896833 0.270706 0.771712 -0.110936 0.0360098 0.405889
internal_weight=0 10794 54681 1542 9252 1285 39855 14826 3243
internal_count=65475 10794 54681 1542 9252 1285 39855 14826 3243
is_linear=0
shrinkage=0.01


Tree=56
num_leaves=10
num_cat=0
split_feature=61 61 61 63 62 63 63 63 64
split_gain=1.64402e+07 4.19823e+06 3.50376e+06 822087 727237 592660 523934 272235 256495
threshold=67.291991117139801 26.37698070280323 169.33980337841462 102.39226830778594 10.425005350195869 249.47376473900857 53.0834543755889 9.190555519597746 137.28253956449069
decision_type=10 8 10 8 10 10 10 8 10
left_child=1 4 3 -2 -1 7 -3 -4 -9
right_child=2 6 5 -5 -6 -7 -8 8 -10
leaf_value=-0.12001375901338079 0.32388861101194516 0.067108305578412797 1.7125404028270554 0.59811254928868152 -0.028913851932499738 1.639340530523034 0.2089480192546008 0.57730203957469384 1.0505145721236611
leaf_weight=34094 3874 9883 46 1523 11794 172 3536 162 391
leaf_count=34094 3874 9883 46 1523 11794 172 3536 162 391
internal_value=0 -0.0511017 0.491357 0.401273 -0.0965995 1.12194 0.104484 0.973374 0.911888
internal_weight=0 59307 6168 5397 45888 771 13419 599 553
internal_count=65475 59307 6168 5397 45888 771 13419 599 553
is_linear=0
shrinkage=0.01


Tree=57
num_leaves=10
num_cat=0
split_feature=61 61 63 61 64 64 61 3 61
split_gain=1.61204e+07 4.99158e+06 2.24821e+06 1.16659e+06 907362 517828 337526 311339 282836
threshold=46.589589581145269 125.97709445914417 17.415902111557767 250.53821180716395 70.43513797413442 169.58845381224936 6.5304452119366188 1.5000000000000002 90.593012700303333
decision_type=10 10 10 10 8 10 8 2 10
left_child=2 4 6 5 -2 -3 -1 -5 -6
right_child=1 3 -4 7 8 -7 -8 -9 -10
leaf_value=-0.12668710828391741 0.18288011307071983 0.62145716677570673 0.035416199692187601 2.3056329793930055 0.31977961240831426 1.054420396873162 -0.061415999748879485 1.3455169687705106 0.49999704107070742
leaf_weight=28947 5462 883 14826 40 2434 402 10908 217 1356
leaf_count=28947 5462 883 14826 40 2434 402 10908 217 1356
internal_value=0 0.353164 -0.0697145 0.879913 0.265373 0.756906 -0.108823 1.49495 0.384258
internal_weight=0 10794 54681 1542 9252 1285 39855 257 3790
internal_count=65475 10794 54681 1542 9252 1285 39855 257 3790
is_linear=0
shrinkage=0.01


Tree=58
num_leaves=10
num_cat=0
split_feature=67 67 62 67 62 8 13 13 3
split_gain=1.4607e+07 4.20406e+06 2.8117e+06 951424 528385 513457 362573 351129 345209
threshold=51.944005550821565 151.12991587456222 16.371368084737288 89.92663679958865 97.944250636358944 1.379509803921569 3.5000000000000004 3.5000000000000004 1.5000000000000002
decision_type=10 10 8 10 10 2 2 2 2
left_child=2 3 -1 6 -4 8 -2 -5 -3
right_child=1 5 4 7 -6 -7 -8 -9 -10
leaf_value=-0.10832286461243529 0.17283358707175059 2.0135984724659033 0.039616402509834329 0.36789142509633649 0.56052837641276232 0.78308437995241176 0.32497661053738147 0.61733261299247932 1.1896405377522434
leaf_weight=38944 3664 59 16862 1316 197 341 2736 988 368
leaf_count=38944 3664 59 16862 1316 197 341 2736 988 368
internal_value=0 0.363185 -0.0614269 0.300605 0.045632 1.07242 0.237875 0.474857 1.30349
internal_weight=0 9472 56003 8704 17059 768 6400 2304 427
internal_count=65475 9472 56003 8704 17059 768 6400 2304 427
is_linear=0
shrinkage=0.01


Tree=59
num_leaves=10
num_cat=0
split_feature=61 61 61 63 67 63 63 63 64
split_gain=1.5544e+07 3.97536e+06 3.31368e+06 780286 687114 568048 496003 268908 244530
threshold=67.291991117139801 26.37698070280323 169.33980337841462 102.39226830778594 12.377333844466452 249.47376473900857 53.0834543755889 9.190555519597746 137.28253956449069
decision_type=10 8 10 8 10 10 10 8 10
left_child=1 4 3 -2 -1 7 -3 -4 -9
right_child=2 6 5 -5 -6 -7 -8 8 -10
leaf_value=-0.11622753517052817 0.3147795565046918 0.065344324931286904 1.6802049026379118 0.58194071287417681 -0.026709196044208496 1.5975603634812112 0.20335149677013623 0.55777072868965294 1.0198137721061098
leaf_weight=34475 3874 9883 46 1523 11413 172 3536 162 391
leaf_count=34475 3874 9883 46 1523 11413 172 3536 162 391
internal_value=0 -0.0496894 0.477777 0.390171 -0.093963 1.09102 0.10171 0.945568 0.884459
internal_weight=0 59307 6168 5397 45888 771 13419 599 553
internal_count=65475 59307 6168 5397 45888 771 13419 599 553
is_linear=0
shrinkage=0.01


Tree=60
num_leaves=10
num_cat=0
split_feature=61 61 63 61 64 64 61 3 61
split_gain=1.52372e+07 4.73022e+06 2.12792e+06 1.11592e+06 857238 487575 321775 300786 269403
threshold=46.589589581145269 125.97709445914417 17.415902111557767 250.53821180716395 70.43513797413442 169.58845381224936 6.1300437727375883 1.5000000000000002 84.772767412341537
decision_type=10 10 10 10 8 10 8 2 10
left_child=2 4 6 5 -2 -3 -1 -5 -6
right_child=1 3 -4 7 8 -7 -8 -9 -10
leaf_value=-0.12378412413687301 0.17770972936583349 0.60438817805529388 0.034501767070103322 2.2544835910797119 0.29849723662707706 1.0245137375637667 -0.060868233071633623 1.3107802712477845 0.46828736403746585
leaf_weight=28479 5462 883 14826 40 2117 402 11376 217 1673
leaf_count=28479 5462 883 14826 40 2117 402 11376 217 1673
internal_value=0 0.343354 -0.0677779 0.856127 0.257892 0.73582 -0.105826 1.45766 0.373447
internal_weight=0 10794 54681 1542 9252 1285 39855 257 3790
internal_count=65475 10794 54681 1542 9252 1285 39855 257 3790
is_linear=0
shrinkage=0.01


Tree=61
num_leaves=10
num_cat=0
split_feature=61 64 61 63 61 63 61 63 66
split_gain=1.49479e+07 3.82932e+06 3.18537e+06 754668 595570 551486 514874 263663 237766
threshold=67.291991117139801 22.117790975435479 169.33980337841462 102.39226830778594 36.615211471504772 249.47376473900857 8.1316925890566392 9.190555519597746 197.83819709652258
decision_type=10 10 10 8 10 10 8 8 10
left_child=1 6 3 -2 -3 7 -1 -4 -9
right_child=2 4 5 -5 -6 -7 -8 8 -10
leaf_value=-0.11939784502317854 0.30848823827513477 0.026630891624510024 1.6538986951631049 0.57122716033039955 0.14836389875445061 1.5688789006998374 -0.042253195155464239 0.71533482906444634 1.1514151687522209
leaf_weight=31138 3874 8771 46 1523 7418 172 11980 362 191
leaf_count=31138 3874 8771 46 1523 7418 172 11980 362 191
internal_value=0 -0.0487271 0.468525 0.382632 0.0824105 1.06978 -0.0979638 0.926462 0.865952
internal_weight=0 59307 6168 5397 16189 771 43118 599 553
internal_count=65475 59307 6168 5397 16189 771 43118 599 553
is_linear=0
shrinkage=0.01


Tree=62
num_leaves=10
num_cat=0
split_feature=61 64 64 61 61 61 61 63 65
split_gain=1.46533e+07 3.46834e+06 3.29414e+06 943828 615174 493758 463040 279506 262643
threshold=61.297195640440073 137.28253956449069 21.292118575267882 250.53821180716395 102.53408505030308 36.049829117887391 8.1316925890566392 10.65144472073875 150.55685884839687
decision_type=10 10 10 10 10 10 8 8 8
left_child=2 4 6 8 -2 -4 -1 -6 -3
right_child=1 3 5 -5 7 -7 -8 -9 -10
leaf_value=-0.11826678440330898 0.26910709872570637 0.63048614612634457 0.02283011651238484 1.5428782720518817 1.0316243895535828 0.13617399685326789 -0.043911046503368224 0.46623803854589996 0.95926444826899349
leaf_weight=31105 4466 491 9011 203 93 6702 11461 1462 481
leaf_count=31105 4466 491 9011 203 93 6702 11461 1462 481
internal_value=0 0.425735 -0.0525677 0.922706 0.328752 0.0711742 -0.0982463 0.500052 0.793184
internal_weight=0 7196 58279 1175 6021 15713 42566 1555 972
internal_count=65475 7196 58279 1175 6021 15713 42566 1555 972
is_linear=0
shrinkage=0.01


Tree=63
num_leaves=10
num_cat=0
split_feature=61 61 63 61 64 64 61 3 66
split_gain=1.43673e+07 4.47529e+06 2.01223e+06 1.05706e+06 818199 463450 301330 293018 260549
threshold=46.589589581145269 125.97709445914417 17.415902111557767 250.53821180716395 70.43513797413442 169.58845381224936 6.1300437727375883 1.5000000000000002 37.81934270343384
decision_type=10 10 10 10 8 10 8 2 10
left_child=2 4 6 5 -2 -3 -1 -5 -4
right_child=1 3 8 7 -6 -7 -8 -9 -10
leaf_value=-0.12019236189423473 0.17194696522953487 0.58694276076818508 0.0070664801695333379 2.2040934524536131 0.36317510895810701 0.99654230995557802 -0.059308008279927257 1.272655769473946 0.0997646588826685
leaf_weight=28479 5462 883 10575 40 3790 402 11376 217 4251
leaf_count=28479 5462 883 10575 40 3790 402 11376 217 4251
internal_value=0 0.333409 -0.0658148 0.832173 0.250282 0.715082 -0.102814 1.41763 0.0336455
internal_weight=0 10794 54681 1542 9252 1285 39855 257 14826
internal_count=65475 10794 54681 1542 9252 1285 39855 257 14826
is_linear=0
shrinkage=0.01


Tree=64
num_leaves=10
num_cat=0
split_feature=61 61 64 61 66 62 61 63 61
split_gain=1.41038e+07 3.62314e+06 3.02147e+06 779288 530502 518160 500232 257081 248605
threshold=67.291991117139801 23.859553310661003 169.58845381224936 112.31728556028486 50.080069160852396 7.0239099606864182 250.53821180716395 74.108049722938844 198.11269566995105
decision_type=10 8 10 10 10 10 10 8 10
left_child=1 5 3 7 -3 -1 -4 -2 -5
right_child=2 4 6 8 -6 -7 -8 -9 -10
leaf_value=-0.11604496311514434 0.23087639270855984 0.051635900303197105 0.91593577823824091 0.52760040244391349 0.1868668193629755 -0.042593390000460717 1.5258414150856354 0.39083642991575768 0.93090462345501479
leaf_weight=30273 2166 11031 515 1257 3936 14067 182 1874 174
leaf_count=30273 2166 11031 515 1257 3936 14067 182 1874 174
internal_value=0 -0.0473315 0.455105 0.376106 0.0871987 -0.0927422 1.07519 0.305076 0.576639
internal_weight=0 59307 6168 5471 14967 44340 697 4040 1431
internal_count=65475 59307 6168 5471 14967 44340 697 4040 1431
is_linear=0
shrinkage=0.01


Tree=65
num_leaves=10
num_cat=0
split_feature=64 64 62 67 62 66 68 3 63
split_gain=1.288e+07 3.44795e+06 2.73992e+06 834931 676834 513509 361071 318027 308122
threshold=54.102937120629427 137.28253956449069 18.954602056524358 174.72002051802983 169.30492933965425 80.048455002478235 32.777253767479941 1.5000000000000002 7.2130242683146175
decision_type=10 10 8 8 10 10 8 2 10
left_child=2 5 8 -3 6 -2 -4 -5 -1
right_child=1 3 4 7 -6 -7 -8 -9 -10
leaf_value=-0.11498026099023884 0.21132879006048025 0.64480721705467559 0.0085929237437238713 1.7816581830586473 1.1254008974463252 0.3832738647938953 0.10444170353404239 1.0623471085210079 -0.052886822169241191
leaf_weight=29935 4697 823 8610 73 59 2756 7231 389 10902
leaf_count=29935 4697 823 8610 73 59 2756 7231 389 10902
internal_value=0 0.357394 -0.0550418 0.83579 0.0563271 0.274911 0.0523454 1.176 -0.0984036
internal_weight=0 8738 56737 1285 15900 7453 15841 462 40837
internal_count=65475 8738 56737 1285 15900 7453 15841 462 40837
is_linear=0
shrinkage=0.01


Tree=66
num_leaves=10
num_cat=0
split_feature=61 61 61 64 62 63 65 66 63
split_gain=1.35926e+07 3.48615e+06 2.90922e+06 975289 602633 447510 440169 262363 195927
threshold=67.291991117139801 26.37698070280323 198.11269566995105 126.2330082501155 10.425005350195869 53.0834543755889 251.53379522319742 90.722772867205165 9.190555519597746
decision_type=10 8 10 8 10 10 10 10 8
left_child=1 4 3 7 -1 -3 8 -2 -4
right_child=2 5 6 -5 -6 -7 -8 -9 -10
leaf_value=-0.10923998355750061 0.27164185667493185 0.06077000263763882 1.7909580215914498 0.66777232970554923 -0.02631095147659528 0.19185738218575032 1.6806000820038811 0.43466251221794999 0.93644824951638084
leaf_weight=34094 3255 9883 29 982 11794 3536 126 1417 359
leaf_count=34094 3255 9883 29 982 11794 3536 126 1417 359
internal_value=0 -0.0464657 0.44678 0.381299 -0.0879258 0.0953124 1.16708 0.321085 1.00032
internal_weight=0 59307 6168 5654 45888 13419 514 4672 388
internal_count=65475 59307 6168 5654 45888 13419 514 4672 388
is_linear=0
shrinkage=0.01


Tree=67
num_leaves=10
num_cat=0
split_feature=61 61 61 66 67 63 66 63 66
split_gain=1.33221e+07 3.41677e+06 2.85378e+06 694344 591794 513328 439054 254536 217178
threshold=67.291991117139801 26.37698070280323 169.33980337841462 107.25089604322135 12.377333844466452 249.47376473900857 50.080069160852396 9.190555519597746 197.83819709652258
decision_type=10 8 10 8 10 10 10 8 10
left_child=1 4 3 -2 -1 7 -3 -4 -9
right_child=2 6 5 -5 -6 -7 -8 8 -10
leaf_value=-0.10770907697856162 0.29404603016748471 0.057971156098995689 1.5878784184870511 0.55312846126191073 -0.02463170321782697 1.4929369859813257 0.18427553239795227 0.6697409076937243 1.0865139164600073
leaf_weight=34475 4002 9553 46 1395 11413 172 3866 362 191
leaf_count=34475 4002 9553 46 1395 11413 172 3866 362 191
internal_value=0 -0.0460011 0.442313 0.361013 -0.0870465 1.01141 0.0943593 0.873143 0.81369
internal_weight=0 59307 6168 5397 45888 771 13419 599 553
internal_count=65475 59307 6168 5397 45888 771 13419 599 553
is_linear=0
shrinkage=0.01


Tree=68
num_leaves=10
num_cat=0
split_feature=64 64 62 67 62 66 3 68 67
split_gain=1.21702e+07 3.4547e+06 2.35526e+06 791616 642597 558661 309267 298384 279829
threshold=51.033751729092955 137.28253956449069 18.590203941817105 174.72002051802983 169.30492933965425 72.35844233682262 1.5000000000000002 32.777253767479941 5.4834492503114447
decision_type=10 10 8 8 10 10 2 8 10
left_child=2 5 8 -3 7 -2 -5 -4 -1
right_child=1 3 4 6 -6 -7 -8 -9 -10
leaf_value=-0.11570915511805979 0.18196556985142998 0.62699143903314691 0.006643199058455315 1.7414808811553537 1.0995313550069414 0.34790244115187002 1.0321452796367263 0.09560336492396912 -0.060788727391859365
leaf_weight=26155 4584 823 8752 73 58 3640 389 6624 14377
leaf_count=26155 4584 823 8752 73 58 3640 389 6624 14377
internal_value=0 0.330754 -0.0561974 0.812955 0.0489303 0.25541 1.14423 0.0449673 -0.0962285
internal_weight=0 9509 55966 1285 15434 8224 462 15376 40532
internal_count=65475 9509 55966 1285 15434 8224 462 15376 40532
is_linear=0
shrinkage=0.01


Tree=69
num_leaves=10
num_cat=0
split_feature=61 61 61 63 61 63 65 61 63
split_gain=1.28396e+07 3.28445e+06 2.75847e+06 901970 568947 425688 422793 293887 188926
threshold=67.291991117139801 26.37698070280323 198.11269566995105 126.27104523690944 8.1316925890566392 53.0834543755889 251.53379522319742 106.89336612293148 9.190555519597746
decision_type=10 8 10 8 10 10 10 10 8
left_child=1 4 3 7 -1 -3 8 -2 -4
right_child=2 5 6 -5 -6 -7 -8 -9 -10
leaf_value=-0.10865283321547523 0.26719718475121151 0.058765649309451905 1.7485661838794577 0.64923078023616765 -0.032075124743277221 0.18661705489656114 1.6388997999827066 0.44930828920023713 0.90946216259411117
leaf_weight=31956 3505 9883 29 963 13932 3536 126 1186 359
leaf_count=31956 3505 9883 29 963 13932 3536 126 1186 359
internal_value=0 -0.0451603 0.434229 0.370466 -0.0854032 0.0924554 1.13562 0.313239 0.972179
internal_weight=0 59307 6168 5654 45888 13419 514 4691 388
internal_count=65475 59307 6168 5654 45888 13419 514 4691 388
is_linear=0
shrinkage=0.01


Tree=70
num_leaves=10
num_cat=0
split_feature=61 61 62 61 66 65 67 3 8
split_gain=1.25967e+07 3.95299e+06 1.74996e+06 948407 711011 395256 298598 276080 218130
threshold=46.589589581145269 125.97709445914417 14.533036701717029 250.53821180716395 74.185077957029179 169.75927548688301 25.306400841332721 1.5000000000000002 1.2405789473684214
decision_type=10 10 8 10 10 10 10 2 2
left_child=2 4 -1 5 -2 -3 -4 -5 -9
right_child=1 3 6 7 -6 -7 -8 8 -10
leaf_value=-0.099265733153457436 0.17022606862704265 0.56209881005217144 -0.024864747808482024 2.0988912601470946 0.35444747946366578 0.95501076229570947 0.060271195309381603 1.7524905775178155 1.0145388253432948
leaf_weight=37902 6046 932 7267 40 3206 353 9512 53 164
leaf_count=37902 6046 932 7267 40 3206 353 9512 53 164
internal_value=0 0.312188 -0.0616258 0.780945 0.234062 0.670035 0.0233987 1.33549 1.19478
internal_weight=0 10794 54681 1542 9252 1285 16779 257 217
internal_count=65475 10794 54681 1542 9252 1285 16779 257 217
is_linear=0
shrinkage=0.01


Tree=71
num_leaves=10
num_cat=0
split_feature=61 64 64 61 66 61 61 63 61
split_gain=1.23539e+07 3.18029e+06 2.68266e+06 695133 504591 451724 422654 235461 212898
threshold=67.291991117139801 22.117790975435479 169.58845381224936 112.31728556028486 49.206476752167568 250.53821180716395 8.5993975134784559 72.279147451136964 198.11269566995105
decision_type=10 10 10 10 10 10 8 8 10
left_child=1 6 3 7 -3 -4 -1 -2 -5
right_child=2 4 5 8 -6 -7 -8 -9 -10
leaf_value=-0.10806150898350884 0.20975249220134318 0.041055526435433053 0.85888665374679474 0.49551429494997778 0.16646691480824755 1.4384667760723242 -0.037285554579547839 0.36247632057764861 0.86873317443091302
leaf_weight=31608 2065 11780 515 1257 4409 182 11510 1975 174
leaf_count=31608 2065 11780 515 1257 4409 182 11510 1975 174
internal_value=0 -0.0442979 0.425937 0.351499 0.0752107 1.01023 -0.0891684 0.284413 0.540895
internal_weight=0 59307 6168 5471 16189 697 43118 4040 1431
internal_count=65475 59307 6168 5471 16189 697 43118 4040 1431
is_linear=0
shrinkage=0.01


Tree=72
num_leaves=10
num_cat=0
split_feature=61 61 63 64 64 61 61 66 61
split_gain=1.21183e+07 3.91463e+06 1.59134e+06 1.03183e+06 656988 341344 251207 198099 189479
threshold=44.92581419055351 118.16264027047613 17.415902111557767 169.58845381224936 67.106360961264826 250.53821180716395 5.2968316644444107 37.81934270343384 198.11269566995105
decision_type=10 10 10 10 10 10 8 10 10
left_child=2 4 6 8 -2 -5 -1 -4 -3
right_child=1 3 7 5 -6 -7 -8 -9 -10
leaf_value=-0.11171708026191354 0.14598282598400988 0.50301282176393647 0.0050988872088340922 0.90615616507423125 0.3143529578489716 1.4240821132162114 -0.057582484445177801 0.088118155336788601 0.86004584164455022
leaf_weight=27307 5508 1020 10393 423 4001 182 12494 3973 174
leaf_count=27307 5508 1020 10393 423 4001 182 12494 3973 174
internal_value=0 0.297754 -0.0621598 0.725519 0.216826 1.06196 -0.0947236 0.0280583 0.555043
internal_weight=0 11308 54167 1799 9509 605 39801 14366 1194
internal_count=65475 11308 54167 1799 9509 605 39801 14366 1194
is_linear=0
shrinkage=0.01


Tree=73
num_leaves=10
num_cat=0
split_feature=61 64 64 61 67 61 61 13 61
split_gain=1.18852e+07 3.05797e+06 2.57741e+06 667341 482257 433162 405625 209686 204183
threshold=67.291991117139801 22.117790975435479 169.58845381224936 112.31728556028486 47.452113725737355 250.53821180716395 9.0410736455607275 1.5000000000000002 198.11269566995105
decision_type=10 10 10 10 8 10 8 2 10
left_child=1 6 3 7 -3 -4 -1 -2 -5
right_child=2 4 5 8 -6 -7 -8 -9 -10
leaf_value=-0.1054398735093465 0.17437448423145949 0.038954927020459898 0.84229342570871979 0.48594500696945975 0.15938025739872502 1.4098412881971714 -0.035160241228081549 0.3286524470472732 0.85144538369672051
leaf_weight=32080 1298 11513 515 1257 4676 182 11038 2742 174
leaf_count=32080 1298 11513 515 1257 4676 182 11038 2742 174
internal_value=0 -0.0434495 0.417779 0.344816 0.0737384 0.990491 -0.0874486 0.279085 0.530387
internal_weight=0 59307 6168 5471 16189 697 43118 4040 1431
internal_count=65475 59307 6168 5471 16189 697 43118 4040 1431
is_linear=0
shrinkage=0.01


Tree=74
num_leaves=10
num_cat=0
split_feature=61 61 63 61 63 63 63 63 61
split_gain=1.16563e+07 3.76045e+06 1.53087e+06 988412 629803 334721 274172 271165 241803
threshold=44.92581419055351 118.16264027047613 17.415902111557767 198.11269566995105 74.108049722938844 249.47376473900857 137.05270601080295 9.190555519597746 4.6667403521293238
decision_type=10 10 10 10 10 10 10 8 8
left_child=2 4 8 6 -2 7 -3 -5 -1
right_child=1 3 -4 5 -6 -7 -8 -9 -10
leaf_value=-0.11053650419070747 0.15602214402539602 0.46232675474201224 0.027524225578160606 1.7869262013290867 0.32955325046443867 1.4889819147833465 0.77490150285515813 0.83697095394134524 -0.058450477845605697
leaf_weight=26326 6403 871 14366 33 3106 145 414 336 13475
leaf_count=26326 6403 871 14366 33 3106 145 414 336 13475
internal_value=0 0.292023 -0.0609632 0.711278 0.212704 1.08189 0.563032 0.921926 -0.0929023
internal_weight=0 11308 54167 1799 9509 514 1285 369 39801
internal_count=65475 11308 54167 1799 9509 514 1285 369 39801
is_linear=0
shrinkage=0.01


Tree=75
num_leaves=10
num_cat=0
split_feature=61 64 64 61 61 61 61 66 64
split_gain=1.14374e+07 2.75206e+06 2.63047e+06 751936 434080 413457 386848 245746 238266
threshold=64.340324707295608 22.117790975435479 137.28253956449069 250.53821180716395 102.53408505030308 36.615211471504772 8.1316925890566392 169.69543624338255 9.6725348940009059
decision_type=10 10 10 10 10 10 8 8 10
left_child=1 6 4 7 -2 -3 -1 -4 -6
right_child=2 5 3 -5 8 -7 -8 -9 -10
leaf_value=-0.10441493380746104 0.24494359758438655 0.023201113011807953 0.57100401088012076 1.3758253760089219 0.84360426962375645 0.12656235288180795 -0.037501405377342083 0.89389014741763695 0.40397646189134728
leaf_weight=31138 3956 8771 562 203 135 6926 11958 406 1420
leaf_count=31138 3956 8771 562 203 135 6926 11958 406 1420
internal_value=0 -0.0445571 0.392045 0.822473 0.300586 0.0688073 -0.0858482 0.706429 0.442144
internal_weight=0 58793 6682 1171 5511 15697 43096 968 1555
internal_count=65475 58793 6682 1171 5511 15697 43096 968 1555
is_linear=0
shrinkage=0.01


Tree=76
num_leaves=10
num_cat=0
split_feature=61 61 61 63 62 63 63 63 66
split_gain=1.12132e+07 2.88944e+06 2.40977e+06 815640 535067 365026 325014 266014 262094
threshold=67.291991117139801 27.338646031782385 198.11269566995105 126.27104523690944 10.425005350195869 52.0507077578565 249.47376473900857 9.190555519597746 90.722772867205165
decision_type=10 8 10 8 10 10 10 8 8
left_child=1 4 3 8 -1 -3 7 -4 -2
right_child=2 5 6 -5 -6 -7 -8 -9 -10
leaf_value=-0.099376391335044639 0.24085915030454769 0.056644908409194318 1.7604708712028736 0.61128882526322381 -0.02239485327192171 0.17456122855248776 1.4624986866178185 0.81958079261793981 0.40150140429062176
leaf_weight=34127 3204 9235 33 963 12277 3668 145 336 1487
leaf_count=34127 3204 9235 33 963 12277 3668 145 336 1487
internal_value=0 -0.0422033 0.405797 0.3462 -0.0790096 0.0901656 1.06136 0.903725 0.291781
internal_weight=0 59307 6168 5654 46404 12903 514 369 4691
internal_count=65475 59307 6168 5654 46404 12903 514 369 4691
is_linear=0
shrinkage=0.01


Tree=77
num_leaves=10
num_cat=0
split_feature=61 61 63 61 66 63 61 66 3
split_gain=1.09973e+07 3.07907e+06 1.98052e+06 715649 628992 306017 285888 284673 266568
threshold=53.08616109434071 137.54082728400547 19.243370954132384 250.53821180716395 94.09274939472958 137.05270601080295 6.1300437727375883 37.81934270343384 1.5000000000000002
decision_type=10 10 10 10 10 10 8 10 2
left_child=2 4 6 5 -2 -3 -1 -4 -5
right_child=1 3 7 8 -6 -7 -8 -9 -10
leaf_value=-0.10522193526062196 0.20078344001465462 0.50098277831919114 0.014038216126787181 2.0000641174316405 0.41764979355683785 0.84720972708473763 -0.048102167966292166 0.10470378347931059 1.111659112561683
leaf_weight=28604 5988 556 9925 40 1722 472 12632 5319 217
leaf_count=28604 5988 556 9925 40 1722 472 12632 5319 217
internal_value=0 0.324752 -0.05172 0.777947 0.24922 0.659951 -0.0877242 0.0456736 1.24993
internal_weight=0 8995 56480 1285 7710 1028 41236 15244 257
internal_count=65475 8995 56480 1285 7710 1028 41236 15244 257
is_linear=0
shrinkage=0.01


Tree=78
num_leaves=10
num_cat=0
split_feature=61 61 61 63 65 63 62 61 61
split_gain=1.07863e+07 2.7816e+06 2.31952e+06 599074 455681 423127 404975 191970 163065
threshold=67.291991117139801 23.859553310661003 169.33980337841462 102.39226830778594 251.53379522319742 49.047870040149213 7.0239099606864182 250.53821180716395 106.89336612293148
decision_type=10 8 10 8 10 10 10 10 10
left_child=1 6 3 8 7 -3 -1 -4 -2
right_child=2 5 4 -5 -6 -7 -8 -9 -10
leaf_value=-0.10178224631284462 0.22520551511075876 0.042653835839777027 0.66877975105819576 0.49273361379272124 1.378774729018531 0.16005080120298348 -0.036846585575223398 1.0575265599630814 0.38453004628626075
leaf_weight=30273 3061 10654 426 1523 164 4313 14067 181 813
leaf_count=30273 3061 10654 426 1523 164 4313 14067 181 813
internal_value=0 -0.0413921 0.397996 0.324701 0.911066 0.0764838 -0.0811812 0.784699 0.258641
internal_weight=0 59307 6168 5397 771 14967 44340 607 3874
internal_count=65475 59307 6168 5397 771 14967 44340 607 3874
is_linear=0
shrinkage=0.01


Tree=79
num_leaves=10
num_cat=0
split_feature=61 61 64 64 64 61 61 66 63
split_gain=1.05814e+07 3.425e+06 1.39738e+06 920869 591251 297622 211291 184133 176108
threshold=44.92581419055351 118.16264027047613 17.008578215563762 169.58845381224936 67.106360961264826 250.53821180716395 5.2968316644444107 31.616025744591926 10.65144472073875
decision_type=10 10 10 10 10 10 8 10 8
left_child=2 4 6 8 -2 -5 -1 -4 -3
right_child=1 3 7 5 -6 -7 -8 -9 -10
leaf_value=-0.10449984987034318 0.13532900513696208 0.97668317085657363 -0.0038965154728144769 0.85070578477096614 0.29505371477013037 1.3343261523626664 -0.054610225050948355 0.068383133540260446 0.48519549941485518
leaf_weight=27227 5508 78 8663 423 4001 182 12335 5942 1116
leaf_count=27227 5508 78 8663 423 4001 182 12335 5942 1116
internal_value=0 0.278233 -0.0580844 0.678352 0.202535 0.996192 -0.0889448 0.0255102 0.517303
internal_weight=0 11308 54167 1799 9509 605 39562 14605 1194
internal_count=65475 11308 54167 1799 9509 605 39562 14605 1194
is_linear=0
shrinkage=0.01


Tree=80
num_leaves=10
num_cat=0
split_feature=61 64 64 61 66 61 61 63 66
split_gain=1.03768e+07 2.68194e+06 2.29115e+06 673937 434049 363891 345793 226928 221792
threshold=67.291991117139801 22.549215232355202 137.28253956449069 250.53821180716395 51.069659455763905 9.2748782564256036 112.31728556028486 22.530200665784744 169.69543624338255
decision_type=10 10 10 10 10 8 10 8 8
left_child=1 5 6 8 -3 -1 -2 -8 -4
right_child=2 4 3 -5 -6 -7 7 -9 -10
leaf_value=-0.098276065240604421 0.25301267350182594 0.040122353578745974 0.54941566033639766 1.3141732719379107 0.16046974129809194 -0.03176738921557877 0.95232367220379066 0.41190078115299289 0.85754420639703299
leaf_weight=32340 3888 11932 552 203 4002 11033 84 1036 405
leaf_count=32340 3888 11932 552 203 4002 11033 84 1036 405
internal_value=0 -0.0405989 0.390369 0.790828 0.0703489 -0.0813579 0.297611 0.452432 0.679815
internal_weight=0 59307 6168 1160 15934 43373 5008 1120 957
internal_count=65475 59307 6168 1160 15934 43373 5008 1120 957
is_linear=0
shrinkage=0.01


Tree=81
num_leaves=10
num_cat=0
split_feature=61 61 63 64 64 8 61 61 64
split_gain=1.01801e+07 3.29122e+06 1.3459e+06 774470 657721 272813 211047 200901 183128
threshold=44.92581419055351 125.97709445914417 17.415902111557767 169.58845381224936 70.43513797413442 1.379509803921569 4.6667403521293238 90.593012700303333 250.66773996315996
decision_type=10 10 10 10 8 2 8 10 10
left_child=2 4 6 -3 -2 8 -1 -6 -5
right_child=1 3 -4 5 7 -7 -8 -9 -10
leaf_value=-0.1033943363997966 0.13903941840757753 0.52726763663187404 0.025997302972373189 0.94445261778855571 0.25361688250063408 0.70297631025173757 -0.054733439627749209 0.40494514125566872 1.3891265571802511
leaf_weight=26326 5925 958 14366 198 2485 212 13475 1356 174
leaf_count=26326 5925 958 14366 198 2485 212 13475 1356 174
internal_value=0 0.272905 -0.0569722 0.702246 0.205115 0.989282 -0.0869197 0.307041 1.15245
internal_weight=0 11308 54167 1542 9766 584 39801 3841 372
internal_count=65475 11308 54167 1542 9766 584 39801 3841 372
is_linear=0
shrinkage=0.01


Tree=82
num_leaves=10
num_cat=0
split_feature=61 64 64 61 61 61 61 63 66
split_gain=9.98033e+06 2.43688e+06 2.26838e+06 669632 425497 374227 279872 232835 219970
threshold=61.297195640440073 137.28253956449069 20.106124633972744 250.53821180716395 98.183266842536781 36.049829117887391 5.2968316644444107 9.878316694635858 169.69543624338255
decision_type=10 10 10 10 10 10 8 8 8
left_child=2 4 6 8 -2 -4 -1 -6 -3
right_child=1 3 5 -5 7 -7 -8 -9 -10
leaf_value=-0.10131673091303062 0.21551211684961369 0.53114643907705239 0.016083224068348428 1.2903006897536407 0.87865923633178067 0.11290383041134711 -0.046871981090587128 0.3723687303506425 0.83607162132932455
leaf_weight=27395 4237 565 9686 203 96 6791 14407 1688 407
leaf_count=27395 4237 565 9686 203 96 6791 14407 1688 407
internal_value=0 0.351354 -0.0433835 0.767923 0.270061 0.0559879 -0.0825524 0.399613 0.658826
internal_weight=0 7196 58279 1175 6021 16477 41802 1784 972
internal_count=65475 7196 58279 1175 6021 16477 41802 1784 972
is_linear=0
shrinkage=0.01


Tree=83
num_leaves=10
num_cat=0
split_feature=61 61 64 61 62 63 61 63 8
split_gain=9.78587e+06 2.54093e+06 2.16152e+06 638355 468331 327069 325612 218380 215587
threshold=67.291991117139801 27.338646031782385 137.28253956449069 250.53821180716395 10.425005350195869 52.0507077578565 112.31728556028486 22.530200665784744 1.2405789473684214
decision_type=10 8 10 10 10 10 10 8 2
left_child=1 4 6 -4 -1 -3 -2 -8 -5
right_child=2 5 3 8 -6 -7 7 -9 -10
leaf_value=-0.092995525531739953 0.24571702992740002 0.052973836619998028 0.6600125495943483 1.9060188776947733 -0.02097456530845352 0.16459120096636451 0.92961575865745549 0.39946893349635099 1.1084557395577432
leaf_weight=34127 3888 9235 957 43 12277 3668 84 1036 160
leaf_count=34127 3888 9235 957 43 12277 3668 84 1036 160
internal_value=0 -0.0394259 0.37909 0.768055 -0.0739411 0.0847039 0.288995 0.43923 1.2774
internal_weight=0 59307 6168 1160 46404 12903 5008 1120 203
internal_count=65475 59307 6168 1160 46404 12903 5008 1120 203
is_linear=0
shrinkage=0.01


Tree=84
num_leaves=10
num_cat=0
split_feature=61 61 63 65 63 64 61 61 63
split_gain=9.60002e+06 3.10861e+06 1.27591e+06 771704 634621 240529 230114 216842 187002
threshold=44.92581419055351 125.97709445914417 19.243370954132384 198.35312296745192 74.108049722938844 137.28253956449069 4.6667403521293238 250.53821180716395 25.884115338892574
decision_type=10 10 10 10 10 8 8 10 10
left_child=2 4 6 5 -2 8 -1 -5 -3
right_child=1 3 -4 7 -6 -7 -8 -9 -10
leaf_value=-0.10040384410650065 0.14157093947235613 0.9665486492544918 0.030476815437877117 0.90932633259449613 0.31202418528415043 0.71839477237742433 -0.05096397427537272 1.4225315840069841 0.3764440193149825
leaf_weight=26407 6468 59 13130 249 3298 513 14630 123 598
leaf_count=26407 6468 59 13130 249 3298 513 14630 123 598
internal_value=0 0.265017 -0.0553253 0.682276 0.199133 0.556134 -0.0827782 1.07902 0.429437
internal_weight=0 11308 54167 1542 9766 1170 41037 372 657
internal_count=65475 11308 54167 1542 9766 1170 41037 372 657
is_linear=0
shrinkage=0.01


Tree=85
num_leaves=10
num_cat=0
split_feature=61 61 64 61 62 61 64 63 8
split_gain=9.41823e+06 2.44415e+06 2.08252e+06 526600 450372 342042 315432 202059 196953
threshold=67.291991117139801 27.338646031782385 169.58845381224936 112.31728556028486 10.668628986698556 250.53821180716395 51.033751729092955 97.423777099131115 1.2405789473684214
decision_type=10 8 10 10 10 10 10 8 2
left_child=1 4 3 7 -1 -4 -3 -2 -7
right_child=2 6 5 -5 -6 8 -8 -9 -10
leaf_value=-0.090962861362677311 0.2088213407574071 0.051607189398506836 0.75501170372398729 0.47116196377016734 -0.019877444848349236 1.8892587539477226 0.16077742210112667 0.37582412104494473 1.0875493108225869
leaf_weight=34371 3094 9185 515 1431 12033 39 3718 946 143
leaf_count=34371 3094 9185 515 1431 12033 39 3718 946 143
internal_value=0 -0.0386782 0.371901 0.306316 -0.0725297 0.886703 0.0830646 0.247926 1.25934
internal_weight=0 59307 6168 5471 46404 697 12903 4040 182
internal_count=65475 59307 6168 5471 46404 697 12903 4040 182
is_linear=0
shrinkage=0.01


Tree=86
num_leaves=10
num_cat=0
split_feature=61 61 61 66 67 65 66 66 4
split_gain=9.23081e+06 2.39551e+06 2.02106e+06 686443 443744 362618 315075 173128 160206
threshold=67.291991117139801 27.338646031782385 198.11269566995105 107.25089604322135 12.377333844466452 251.53379522319742 52.099005140671814 169.69543624338255 5.5000000000000009
decision_type=10 8 10 8 10 10 10 10 2
left_child=1 4 3 -2 -1 8 -3 -5 -4
right_child=2 6 5 7 -6 -7 -8 -9 -10
leaf_value=-0.089958748300377589 0.24447265759227069 0.052109307344453473 0.47000355604170552 0.43184756897251519 -0.019130368743660919 1.4346388713755307 0.1632930239233383 0.67816558559975959 0.93611460285280612
leaf_weight=34510 4057 9407 99 1225 11894 126 3496 372 289
leaf_count=34510 4057 9407 99 1225 11894 126 3496 372 289
internal_value=0 -0.0382914 0.368182 0.313604 -0.0718044 0.968545 0.082234 0.489224 0.817184
internal_weight=0 59307 6168 5654 46404 514 12903 1597 388
internal_count=65475 59307 6168 5654 46404 514 12903 1597 388
is_linear=0
shrinkage=0.01


Tree=87
num_leaves=10
num_cat=0
split_feature=61 61 63 66 65 64 61 61 61
split_gain=9.05434e+06 2.85558e+06 1.29877e+06 662869 626078 224629 222990 192579 187395
threshold=46.589589581145269 137.54082728400547 19.243370954132384 90.722772867205165 198.35312296745192 62.62479158000189 4.6667403521293238 250.53821180716395 250.53821180716395
decision_type=10 10 10 10 10 8 8 10 10
left_child=2 3 6 5 8 -2 -1 -6 -3
right_child=1 4 -4 -5 7 -7 -8 -9 -10
leaf_value=-0.097638112460134874 0.11582756402597749 0.51251852379334939 0.032530431164278131 0.36816564840679961 0.89481047286941062 0.22646424344545049 -0.049035645305371238 1.3842765657688545 0.91673318296226103
leaf_weight=26407 4379 796 13582 1971 232 3159 14692 123 134
leaf_count=26407 4379 796 13582 1971 232 3159 14692 123 134
internal_value=0 0.264678 -0.0522473 0.204886 0.707135 0.162193 -0.0802638 1.0644 0.57076
internal_weight=0 10794 54681 9509 1285 7538 41099 355 930
internal_count=65475 10794 54681 9509 1285 7538 41099 355 930
is_linear=0
shrinkage=0.01


Tree=88
num_leaves=10
num_cat=0
split_feature=61 61 64 64 63 61 61 8 11
split_gain=8.88873e+06 2.66859e+06 1.74728e+06 442125 387406 363979 315828 192077 203174
threshold=74.215913296365571 27.818471457292208 169.58845381224936 9.920761688519212 52.0507077578565 112.31728556028486 250.53821180716395 1.2405789473684214 345.50000000000006
decision_type=10 8 10 10 10 10 10 2 2
left_child=1 3 5 -1 -3 -2 -4 -8 -9
right_child=2 4 6 -5 -6 -7 7 8 -10
leaf_value=-0.089431185052966614 0.26409442189591753 0.052448416601991399 0.73884425555539923 -0.021225515121862177 0.16668541723085403 0.45775276147354993 1.8460284142310803 0.90231077986034924 1.9890721302032472
leaf_weight=33374 3016 9316 511 13288 4357 1431 39 123 20
leaf_count=33374 3016 9316 511 13288 4357 1431 39 123 20
internal_value=0 -0.0340078 0.399195 -0.0700082 0.0888509 0.326412 0.866248 1.22396 1.05431
internal_weight=0 60335 5140 46662 13673 4447 693 182 143
internal_count=65475 60335 5140 46662 13673 4447 693 182 143
is_linear=0
shrinkage=0.01


Tree=89
num_leaves=10
num_cat=0
split_feature=61 61 64 62 63 61 61 8 11
split_gain=8.71185e+06 2.61548e+06 1.71251e+06 435147 379697 356736 309543 188255 199131
threshold=74.215913296365571 27.818471457292208 169.58845381224936 10.668628986698556 52.0507077578565 112.31728556028486 250.53821180716395 1.2405789473684214 345.50000000000006
decision_type=10 8 10 10 10 10 10 2 2
left_child=1 3 5 -1 -3 -2 -4 -8 -9
right_child=2 4 6 -5 -6 -7 7 8 -10
leaf_value=-0.087553342188228286 0.26145347815559716 0.051923932378025991 0.73145581249504876 -0.0181960834209361 0.16501856286996597 0.45317523389711073 1.8275681357047497 0.89328766546113703 1.969181390762329
leaf_weight=34387 3016 9316 511 12275 4357 1431 39 123 20
leaf_count=34387 3016 9316 511 12275 4357 1431 39 123 20
internal_value=0 -0.0336678 0.395203 -0.0693081 0.0879624 0.323148 0.857586 1.21172 1.04376
internal_weight=0 60335 5140 46662 13673 4447 693 182 143
internal_count=65475 60335 5140 46662 13673 4447 693 182 143
is_linear=0
shrinkage=0.01


Tree=90
num_leaves=10
num_cat=0
split_feature=64 67 62 66 62 64 68 63 64
split_gain=8.07934e+06 2.22169e+06 1.69955e+06 563087 475583 344754 229403 197555 176407
threshold=54.102937120629427 151.12991587456222 18.954602056524358 90.722772867205165 169.30492933965425 250.66773996315996 32.777253767479941 7.2130242683146175 126.2330082501155
decision_type=10 10 8 10 10 10 8 10 10
left_child=2 3 7 -2 6 -3 -4 -1 -5
right_child=1 5 4 8 -6 -7 -8 -9 -10
leaf_value=-0.09101818003589314 0.18087171959364257 0.67129956429748061 0.0059069668605711747 0.31057658645095543 0.94026719764127564 1.1507029734655785 0.082306416732670584 -0.041298451901745296 0.5038061757765564
leaf_weight=29935 5685 538 8610 1644 59 208 7231 10902 663
leaf_count=29935 5685 538 8610 1644 59 208 7231 10902 663
internal_value=0 0.283059 -0.0435936 0.234343 0.044119 0.804967 0.0407813 -0.0777448 0.366108
internal_weight=0 8738 56737 7992 15900 746 15841 40837 2307
internal_count=65475 8738 56737 7992 15900 746 15841 40837 2307
is_linear=0
shrinkage=0.01


Tree=91
num_leaves=10
num_cat=0
split_feature=64 64 62 66 62 66 62 68 67
split_gain=7.91959e+06 2.28493e+06 1.51844e+06 537970 467158 378753 257418 192586 191233
threshold=51.033751729092955 137.28253956449069 18.954602056524358 251.43695246189495 169.30492933965425 70.576346259569704 72.375967612287567 43.219136664898464 4.9008004850979567
decision_type=10 10 8 10 10 10 10 8 10
left_child=2 5 8 6 7 -2 -3 -4 -1
right_child=1 3 4 -5 -6 -7 -8 -9 -10
leaf_value=-0.094171766992303813 0.14205681448622501 0.18244469105005265 0.017942822222930272 1.111639638143942 0.93579632294589077 0.27808615106896972 0.62930447418986124 0.10483129278868973 -0.049628862147561903
leaf_weight=25164 4386 150 11873 218 58 3838 917 3249 15622
leaf_count=25164 4386 150 11873 218 58 3838 917 3249 15622
internal_value=0 0.266814 -0.0453335 0.65897 0.0400467 0.205539 0.566484 0.036611 -0.0771108
internal_weight=0 9509 55966 1285 15180 8224 1067 15122 40786
internal_count=65475 9509 55966 1285 15180 8224 1067 15122 40786
is_linear=0
shrinkage=0.01


Tree=92
num_leaves=10
num_cat=0
split_feature=61 64 61 63 66 65 61 63 13
split_gain=8.2555e+06 2.46827e+06 1.63058e+06 540253 434164 337179 319620 179985 169024
threshold=74.215913296365571 23.744365912023763 198.11269566995105 126.27104523690944 53.053497980958589 251.53379522319742 9.2748782564256036 9.190555519597746 1.0000000180025095e-35
decision_type=10 10 10 8 10 10 8 8 2
left_child=1 6 3 8 -3 7 -1 -4 -2
right_child=2 4 5 -5 -6 -7 -8 -9 -10
leaf_value=-0.087664856476857428 0.15352789468863567 0.041800551644662988 1.53088218245013 0.54253511587129444 0.15918350179477378 1.3684931105020501 -0.026769589814654347 0.71187593902323743 0.31018776887321126
leaf_weight=32424 914 11883 29 918 4288 126 11740 359 2794
leaf_count=32424 914 11883 29 918 4288 126 11740 359 2794
internal_value=0 -0.0327741 0.384713 0.325343 0.0729265 0.919045 -0.0714772 0.77309 0.271572
internal_weight=0 60335 5140 4626 16171 514 44164 388 3708
internal_count=65475 60335 5140 4626 16171 514 44164 388 3708
is_linear=0
shrinkage=0.01


Tree=93
num_leaves=10
num_cat=0
split_feature=61 61 64 65 64 64 61 61 66
